
//<![CDATA[

// a few things don't have var in front of them - they update already existing variables the game needs
lanesSide = 3;
patchesAhead = 50;
patchesBehind = 10;
trainIterations = 150000;

// the number of other autonomous vehicles controlled by your network
otherAgents = 0; // max of 10

var num_inputs = (lanesSide * 2 + 1) * (patchesAhead + patchesBehind);
var num_actions = 5;
var temporal_window = 0;
var network_size = num_inputs * temporal_window + num_actions * temporal_window + num_inputs;

var layer_defs = [];
    layer_defs.push({
    type: 'input',
    out_sx: 1,
    out_sy: 1,
    out_depth: network_size
});
layer_defs.push({
    type: 'fc',
    num_neurons: 30,
    activation: 'relu'
});
layer_defs.push({
    type: 'fc',
    num_neurons: 30,
    activation: 'relu'
});
layer_defs.push({
    type: 'regression',
    num_neurons: num_actions
});

var tdtrainer_options = {
    learning_rate: 0.0005,
    momentum: 0.0,
    batch_size: 64,
    l2_decay: 0.01
};

var opt = {};
opt.temporal_window = temporal_window;
opt.experience_size = 30000;
opt.start_learn_threshold = 5000;
opt.gamma = 0.95;
opt.learning_steps_total = 30000;
opt.learning_steps_burnin = 5000;
opt.epsilon_min = 0.0;
opt.epsilon_test_time = 0.0;
opt.layer_defs = layer_defs;
opt.tdtrainer_options = tdtrainer_options;

brain = new deepqlearn.Brain(num_inputs, num_actions, opt);

learn = function (state, lastReward) {
brain.backward(lastReward);
var action = brain.forward(state);

draw_net();
draw_stats();

return action;
}

//]]>

/*###########*/
if (brain) {
brain.value_net.fromJSON({"layers":[{"out_depth":420,"out_sx":1,"out_sy":1,"layer_type":"input"},{"out_depth":30,"out_sx":1,"out_sy":1,"layer_type":"fc","num_inputs":420,"l1_decay_mul":0,"l2_decay_mul":1,"filters":[{"sx":1,"sy":1,"depth":420,"w":{"0":-0.07230766973949133,"1":-0.012275994064571576,"2":0.0734363074337138,"3":0.06374254953697685,"4":0.054840129068826245,"5":-0.04563332545136312,"6":-0.02253519444061088,"7":-0.0750231469620949,"8":-0.024210041319126508,"9":0.004422673331416164,"10":-0.0002857060513091251,"11":-0.034311520214255216,"12":-0.013880312660844232,"13":-0.047771643353103646,"14":0.03436885674240917,"15":0.0213199373279944,"16":-0.08144449878179452,"17":0.009320372866213553,"18":0.07740514910620094,"19":0.03732302751842305,"20":0.002173932970836358,"21":-0.03257221461932208,"22":-0.058523587380851144,"23":0.09331614759966565,"24":-0.045823441532409886,"25":0.053528960544451346,"26":0.07261738308140381,"27":-0.015807542499170837,"28":-0.042779220492488834,"29":-0.035654070179216624,"30":-0.06971034903300855,"31":-0.04021039996434354,"32":0.0713532174482422,"33":0.09667403893362302,"34":0.005163694244554999,"35":0.0007955979143159934,"36":0.018579175872649883,"37":0.03851510923141149,"38":0.07109681493688383,"39":0.08319760797831702,"40":-0.009962850988634997,"41":0.02401528142455016,"42":0.09848427924938769,"43":0.00925025175086657,"44":-0.0489635943079071,"45":-0.06161222360323447,"46":0.042464636733514714,"47":0.021299250949576694,"48":0.05419653375333082,"49":0.005521630244015916,"50":0.015552650321570008,"51":-0.03352624309941408,"52":0.05851432362383848,"53":0.03420272117504621,"54":0.05755130267304184,"55":0.07759052444418275,"56":-0.09748119800349825,"57":-0.07219420029047073,"58":0.01044425871733065,"59":0.022446073524830232,"60":-0.00643479695388141,"61":0.010749847842683548,"62":0.013809361655403684,"63":-0.012142980050004375,"64":-0.06657606067678319,"65":0.06305073314560027,"66":-0.12245181775809953,"67":-0.03753098919621461,"68":0.07040375738880544,"69":0.009281941778831774,"70":-0.004465553869824236,"71":0.035203693320392186,"72":-0.02803914128884549,"73":0.0487247558836959,"74":0.004898025179685339,"75":-0.027842235757756625,"76":-0.017600448004833315,"77":-0.09485409079486698,"78":0.01567213683476374,"79":0.04781526015693751,"80":0.004034674833194639,"81":-0.026545262626264186,"82":0.0023432545988871867,"83":0.013181906377936614,"84":0.00899716471640569,"85":-0.0472885283800694,"86":0.04263864224243346,"87":0.04904439561180278,"88":-0.009435675400969585,"89":0.030087300890010764,"90":0.006814340225314451,"91":-0.015533072101190787,"92":-0.003030055119789599,"93":0.058612510745551724,"94":-0.011878331954692704,"95":0.10746526925909104,"96":0.08906804237310383,"97":0.03492846001916143,"98":-0.0014798040243151113,"99":0.035885332978358324,"100":-0.07659181187152585,"101":-0.09582864484513372,"102":0.024409661990139008,"103":-0.0008937320297513409,"104":-0.0486944878301915,"105":-0.012345417600803614,"106":0.07387996769704112,"107":0.029535529385767378,"108":-0.0400180261315109,"109":-0.03912198347296098,"110":0.014239344702010973,"111":0.018821785215673393,"112":-0.011311824913299285,"113":0.01050079722186107,"114":-0.04743941604427756,"115":0.046179109908228204,"116":0.07272267391120964,"117":0.05107170377850658,"118":0.11783634251930207,"119":-0.061587680575842,"120":-0.019127110156161357,"121":0.03510305447956496,"122":0.0031905999522048,"123":-0.0825737073510415,"124":0.0008977596301752312,"125":-0.003167703059290206,"126":0.0021970975824116387,"127":-0.061682012726893415,"128":-0.010401756462488356,"129":-0.04062269127191978,"130":-0.10034867561629077,"131":-0.05559521198688407,"132":0.042092262661613714,"133":-0.03418906458228696,"134":-0.1029189310622157,"135":0.006060782967181773,"136":-0.04011829967918837,"137":0.00009953215502240908,"138":0.03127291680486855,"139":0.04995001789457747,"140":0.011481462806991347,"141":-0.0022905645392713434,"142":-0.012835384607260572,"143":-0.05445171678664657,"144":0.08235528130358721,"145":0.010990414412940307,"146":-0.035986396904811646,"147":-0.019951949592123205,"148":-0.060738908577017615,"149":-0.017294788351391997,"150":0.04344644867435569,"151":0.05039505841481104,"152":-0.07483333991983984,"153":-0.0038266593348806805,"154":-0.03834732032985276,"155":0.023150894766246696,"156":-0.0627776190240642,"157":-0.012843626361604294,"158":0.06442192940632871,"159":0.030561958940229107,"160":0.04668730879318103,"161":0.006867043448538119,"162":0.015538458465075622,"163":0.01695084392409685,"164":0.00900168265506243,"165":0.0514432182240427,"166":0.01649524408336615,"167":0.05605530620030191,"168":-0.02019776244292741,"169":0.006360943752447812,"170":-0.029783189372691556,"171":0.02449399280007873,"172":0.02688035584794478,"173":-0.005326374826100684,"174":-0.05225882516951337,"175":-0.07348985938177786,"176":-0.06575672158633346,"177":0.07054128081719788,"178":-0.011274215979125224,"179":0.070203972399338,"180":0.07021330731182668,"181":-0.0475841886395947,"182":0.0021707467019563844,"183":-0.0697589300565955,"184":-0.03248446432317067,"185":0.02371717087621354,"186":0.03895110088247679,"187":-0.04664023555756734,"188":0.016383858086883987,"189":0.05058478312046135,"190":-0.08763548275163631,"191":-0.09570780032402514,"192":0.04607229099953128,"193":0.07876280440997056,"194":0.07965494052362028,"195":0.028956690983912937,"196":-0.037900337561371455,"197":-0.0646927925233983,"198":-0.019055152107191012,"199":-0.07828294986999673,"200":0.01760702336594909,"201":0.016641912996629142,"202":-0.020489518942962054,"203":-0.1255645419420737,"204":-0.02481651683438112,"205":-0.02989206513296158,"206":-0.007640545741303606,"207":0.09433672807040436,"208":0.03925638794025095,"209":0.06988556560181224,"210":-0.03981643774425279,"211":0.04637928328363483,"212":-0.021939214218695186,"213":0.043509459260096806,"214":0.045203348752516845,"215":0.0763970465578618,"216":0.019485739673961316,"217":-0.06578915516787644,"218":-0.03547517545382756,"219":0.008598920244520707,"220":-0.022891428412219417,"221":-0.010186989607857319,"222":-0.09678731509491488,"223":0.04592828581064697,"224":-0.004186417659144218,"225":0.011008712930889538,"226":0.04765269736834384,"227":-0.02830980657945535,"228":0.11269503854497333,"229":0.044130200900119376,"230":0.015600791763158312,"231":-0.009210945388533554,"232":-0.04516655942716401,"233":-0.12777417516011694,"234":0.003135959070964231,"235":0.1296166522280606,"236":0.07047600773784092,"237":0.027441679027949643,"238":-0.09507966048146305,"239":-0.0706129927448721,"240":0.005029790154153893,"241":0.0844037923160322,"242":0.07190544295542219,"243":0.06110913797192343,"244":-0.02705090216124044,"245":-0.03839830220790813,"246":-0.09265468347404843,"247":-0.01393693264349627,"248":-0.008781397156105101,"249":0.04526765973693702,"250":0.0035713718314395156,"251":-0.03984299258646032,"252":-0.01050979017682894,"253":-0.0626661698720563,"254":-0.04850845836768692,"255":-0.0370434019125418,"256":0.01592967651899622,"257":0.08234136827440211,"258":-0.035376392784214186,"259":0.050153071431994156,"260":0.019321309087994898,"261":0.026325961524070178,"262":0.12822352550519786,"263":0.14917129501429388,"264":0.09856436769947956,"265":-0.07153697834787777,"266":0.0846532705320652,"267":0.05017043402055833,"268":-0.06694310646015436,"269":-0.012824342224663624,"270":0.05582666072963981,"271":-0.018842072990825222,"272":0.033614597078819086,"273":0.05574862092300375,"274":-0.08014885401653465,"275":-0.004530840521959197,"276":0.025429569095998746,"277":0.10695322538193498,"278":0.055797406061066514,"279":0.083177970004901,"280":-0.09341407263523359,"281":-0.01773749988913077,"282":-0.04003033995854929,"283":0.0681539984166875,"284":0.015277481170536395,"285":0.03348679130882059,"286":0.035141842091672905,"287":-0.083360613817543,"288":-0.03179732842054633,"289":0.016416568077050317,"290":0.06760345562656275,"291":0.10032187117044654,"292":0.12867916021299358,"293":0.020991704653668914,"294":0.024946794542528242,"295":-0.05516723631258195,"296":-0.0417957710046967,"297":0.043500184723432346,"298":0.16541103704633436,"299":0.045228164355078204,"300":-0.005981917459629324,"301":-0.06601836699193259,"302":-0.056844637407488706,"303":-0.05455128700710047,"304":0.11874106761085888,"305":0.08831178720109471,"306":-0.0054064039138978235,"307":0.02837242216250168,"308":0.01289224807988905,"309":0.049934756264103965,"310":0.015511665636425533,"311":-0.02022169039126194,"312":0.13829030031367842,"313":0.13333521208123872,"314":0.023993862603816345,"315":-0.02207462896071802,"316":-0.037761259125302336,"317":-0.03553501692439316,"318":0.0711767080162325,"319":0.10044246990455445,"320":-0.024849489933731754,"321":-0.00354186827185711,"322":0.031190825569941055,"323":0.051810290911495284,"324":-0.03808408494108393,"325":0.07151081664725793,"326":0.00808570068520393,"327":-0.03456170036771468,"328":0.05235714514765692,"329":-0.09815803730563075,"330":-0.012441646486004248,"331":0.00768180537785245,"332":0.025781492168037056,"333":0.10604140292691476,"334":-0.01314153852757021,"335":-0.024010500805311308,"336":0.04608326847343552,"337":-0.07953769540041493,"338":0.07938252038867366,"339":-0.03916190971108523,"340":0.05045460359633312,"341":-0.059627127071613634,"342":-0.05316694041816926,"343":-0.018678621009593055,"344":-0.03897538360482399,"345":-0.012353618553633606,"346":0.020864508863872738,"347":0.09572514613430769,"348":0.0015191712355641029,"349":-0.0018310344805902228,"350":-0.08222758860938989,"351":0.017344988854786966,"352":-0.016867728728225142,"353":0.016657604771325347,"354":-0.08101254516381445,"355":0.022754841301347906,"356":0.013826588399373086,"357":-0.003417345437454534,"358":0.0407217847604227,"359":-0.03114888744424625,"360":0.06206926379166533,"361":0.1806417884051695,"362":-0.03223124434667235,"363":0.02562066644353922,"364":0.010213324063290221,"365":-0.029698953947309908,"366":-0.07088564944219279,"367":-0.022829347932290436,"368":0.04898232295435427,"369":0.05353952295554523,"370":0.02527618813712193,"371":-0.005959960815196792,"372":-0.08575755314313141,"373":-0.019335186348796028,"374":0.05387041665108334,"375":0.06193493640356642,"376":0.09397304106070373,"377":0.04575018090462588,"378":-0.06196136050855674,"379":-0.01316422577799702,"380":0.046307266365169554,"381":0.09043143009704564,"382":0.05626877235744882,"383":-0.05227789660347033,"384":-0.0014981313786185141,"385":-0.022699997001114323,"386":-0.041907377281937795,"387":-0.028884789476181515,"388":0.07415892535412083,"389":0.036886450276738716,"390":0.051044899782646196,"391":0.020257949235525395,"392":-0.029935477648838263,"393":-0.010135741805982512,"394":0.04800277410969336,"395":0.055298629436360616,"396":-0.004303087416175232,"397":0.0003451270660601393,"398":0.08142445374228542,"399":-0.031008477764985016,"400":0.0648282486321569,"401":0.08611209565077174,"402":-0.015271326137364158,"403":-0.07095910553049598,"404":0.012740219960822275,"405":0.061031014300885734,"406":-0.11502518245247396,"407":-0.03030474642433103,"408":0.01598750660358982,"409":0.10789506512032103,"410":0.015141816877828026,"411":0.07235332162610282,"412":-0.04959746912176685,"413":-0.10994316549143386,"414":-0.03728666413758333,"415":0.023542133097863745,"416":-0.01412757524928446,"417":0.06478054425959706,"418":-0.03915139935489668,"419":-0.03290520106241199}},{"sx":1,"sy":1,"depth":420,"w":{"0":-0.00521810229476469,"1":-0.007465559208344135,"2":-0.022557784952142286,"3":0.06585629922844247,"4":0.1222395343874007,"5":-0.04238122680891964,"6":-0.10651406202189781,"7":-0.025596867909221492,"8":-0.03454620434417605,"9":-0.017858536237291896,"10":0.020729105152207723,"11":-0.003580602738064518,"12":0.04325727745045486,"13":0.06386941046301399,"14":0.012170287116451123,"15":-0.026722314333494965,"16":-0.11490940218511768,"17":0.007307865381336358,"18":0.0558127305396542,"19":0.009057864450648517,"20":0.05907452869507074,"21":0.022718483749733745,"22":0.049988717775116605,"23":-0.022555511714312144,"24":0.03917566059216867,"25":-0.06169402323546058,"26":0.07093127622642617,"27":-0.02194646771251879,"28":-0.07754965975407949,"29":-0.03650060337037844,"30":-0.05145553337779633,"31":0.040089949539915154,"32":0.041305339706131664,"33":0.02034647962438193,"34":0.0073465496593026775,"35":0.08615052341831385,"36":0.02943958677381221,"37":0.047934485722360615,"38":0.05837501302429748,"39":-0.03548147507534532,"40":0.01599467553967132,"41":-0.03778161678094419,"42":0.04112651477840051,"43":-0.06625590562197271,"44":0.044053804659859065,"45":0.08635279520175684,"46":-0.0016475056206160543,"47":0.047287538561270784,"48":-0.010730772438195368,"49":0.0728252391176419,"50":-0.06810202862894814,"51":-0.024654313665573867,"52":-0.015352890066594287,"53":-0.03432176144341243,"54":0.023242984400934145,"55":0.03506278933025174,"56":-0.015951141070844603,"57":0.02259324790487987,"58":-0.022914557114394263,"59":0.03945327548950696,"60":0.026635247748481986,"61":0.013620183142364978,"62":-0.11878489042964596,"63":-0.01261113773353637,"64":-0.06245840445346112,"65":-0.0038195698012734283,"66":0.03072636976011763,"67":0.031974646498194835,"68":-0.0059113213841120345,"69":-0.05444959004078569,"70":0.010287309946447564,"71":0.010372914912620495,"72":-0.0979910564347863,"73":0.029454297388781157,"74":-0.02274204139824441,"75":-0.02189091294806793,"76":0.07381794778211755,"77":-0.03242758809561582,"78":-0.07708426707612999,"79":0.023169188605285822,"80":0.0772227069090873,"81":0.05897315073719458,"82":-0.010458471850460511,"83":-0.06284565550858859,"84":-0.025984872052815085,"85":0.02413023045880492,"86":0.010946575185932686,"87":0.10809636830959188,"88":-0.022304658304125573,"89":-0.033187670902436454,"90":-0.04205989155255745,"91":-0.0170452835469457,"92":0.046069351098324926,"93":-0.027727485808162672,"94":0.0013778868386936111,"95":-0.05205038824639527,"96":-0.05895766244670894,"97":0.08303639561432148,"98":0.041356362414586345,"99":-0.053326347086928634,"100":-0.02192441491461991,"101":-0.01670522867266656,"102":-0.029346757855032653,"103":-0.027316103923374333,"104":0.029553868371759166,"105":0.03435479445315571,"106":0.004670022927202037,"107":0.05819851291877373,"108":0.04041222600039757,"109":0.04868513748913898,"110":-0.004341531630557978,"111":0.005428928153227504,"112":-0.034819038197161,"113":-0.04120018921062256,"114":0.015891719734556692,"115":0.05067278626720052,"116":-0.03867546638278378,"117":0.002333891203964363,"118":-0.022500475436487297,"119":-0.061970119368420166,"120":0.059482896232735255,"121":-0.0017238378288917347,"122":0.008121287860047325,"123":-0.04089059498728617,"124":0.08736432058540988,"125":0.022665325796110174,"126":-0.03281961935639859,"127":0.014643263547763359,"128":-0.010641404375455051,"129":0.03693043793859979,"130":0.003396923609394546,"131":0.022718470021134116,"132":-0.03563236227748234,"133":0.08451275187109188,"134":0.01071862988536857,"135":0.030052518318203093,"136":-0.006357107615112749,"137":-0.0025679374452801133,"138":0.03727585424446116,"139":0.021378637294487576,"140":-0.08950607007007266,"141":-0.009417700815406415,"142":-0.01735881096482089,"143":0.043903696589474,"144":0.0490355352429161,"145":0.0722748937217349,"146":-0.05484846655348978,"147":-0.09369125655639979,"148":-0.005975985359075902,"149":0.023515597894515423,"150":0.057566448479274425,"151":-0.04933876153338035,"152":-0.02689261256341571,"153":-0.0014132326407405808,"154":-0.0666087159429589,"155":0.005536841693687972,"156":-0.02245303454299166,"157":-0.027725402892654856,"158":0.03420803216310032,"159":-0.023413031182708544,"160":-0.03728638808112457,"161":0.041187271010954006,"162":-0.048171134755310846,"163":0.06283916594632948,"164":0.06539326723512248,"165":0.01580461305990643,"166":-0.00860166349997193,"167":-0.00830816574897495,"168":-0.0519070904665979,"169":0.03586989171661007,"170":-0.005095073061221012,"171":0.04617613852040158,"172":-0.036457625313560574,"173":-0.012770519953472049,"174":-0.022651426178793316,"175":0.0269390023984244,"176":-0.0072989038618686535,"177":0.0013553485632942473,"178":0.10835283394879053,"179":-0.12052119871690585,"180":0.016165939330143063,"181":-0.03743013133075664,"182":0.008383030254616494,"183":0.02847307775868292,"184":0.1086044250752589,"185":0.09217855938911826,"186":0.1333340571574565,"187":-0.004849272757189796,"188":0.04710580283440965,"189":0.09732430173469162,"190":0.061425523850397984,"191":-0.06753439782865583,"192":0.10443494425020164,"193":-0.00940508300000924,"194":-0.004263987185223057,"195":0.003328660258936011,"196":0.005997980648812929,"197":0.023933506703994408,"198":0.03771153770077022,"199":0.09128844716558494,"200":-0.11252490344940629,"201":-0.0006742285360430733,"202":0.0322527444067416,"203":-0.025737694036594764,"204":0.08284080776057537,"205":0.08311728360405442,"206":0.13163732258136107,"207":0.06828199217293562,"208":0.0063543749263670285,"209":-0.066572784832685,"210":-0.04916715010518887,"211":0.02145514658982913,"212":0.08913723577486926,"213":0.09518014294317272,"214":0.08696712073940137,"215":0.05611623854784814,"216":0.03341264810129291,"217":0.030980123512417076,"218":0.0177777695101099,"219":-0.009336014023046985,"220":-0.02522243774650374,"221":0.004106481929674123,"222":0.04329671648796792,"223":-0.042478797667702094,"224":0.12587027216296498,"225":0.0789350651431984,"226":0.05145122755298925,"227":0.08060561581676387,"228":0.04083276438645324,"229":0.05128587797901377,"230":-0.0118292097650689,"231":-0.04835571436768157,"232":0.08720789440102536,"233":0.07879343681913666,"234":0.05872704204275206,"235":0.12721806787639345,"236":-0.014288075757566906,"237":-0.015068066291206574,"238":-0.0011035074943172944,"239":-0.04203363751288478,"240":0.06659675943780077,"241":0.1178042235870046,"242":0.06830059942133675,"243":-0.02865402720217764,"244":-0.07460963252718174,"245":0.03160517101846147,"246":-0.010663460538702943,"247":0.0504981690720694,"248":0.045487333219766904,"249":0.06626976001635111,"250":0.0602920495210792,"251":-0.009015879872340092,"252":0.03798763379170251,"253":-0.014830792695531331,"254":0.03574301013916669,"255":0.16802072667895912,"256":0.02923535461036733,"257":0.0076520115681342205,"258":0.071125917349494,"259":0.006608650192779203,"260":-0.05891649337626208,"261":0.05085670096729796,"262":0.19738131907638073,"263":0.1245479575878756,"264":0.1521125969381815,"265":0.0499063025680518,"266":-0.08121104364347191,"267":0.02743841765594166,"268":0.1135186016147457,"269":0.21652997195614368,"270":0.1427253414044772,"271":0.07627769965406483,"272":-0.13556446958920715,"273":0.019430551158263493,"274":0.024203466245959943,"275":0.08606610283642428,"276":0.2488460916185821,"277":0.08795273667480533,"278":0.04277309564734465,"279":-0.00741397106492963,"280":-0.02575252433142589,"281":-0.012943571307042951,"282":0.10959913705424655,"283":0.24814439591718027,"284":0.11403582509631964,"285":0.008175850512905257,"286":-0.007086483782685052,"287":0.006047101117212297,"288":0.01495844826986835,"289":0.1309260491187681,"290":0.30590291633690814,"291":0.09535567781248504,"292":0.0587080028064632,"293":0.03981562712126607,"294":0.024196404199845385,"295":-0.04585853058711803,"296":0.07748270498951354,"297":0.33977941556635083,"298":0.050508353126400105,"299":0.07204390657260881,"300":0.00859113113178702,"301":-0.00039715923690024563,"302":-0.03507947858189044,"303":0.040094199233980575,"304":0.41915147026867206,"305":0.14689698460500655,"306":0.07564299156173038,"307":-0.03159206926266009,"308":0.04345889197623728,"309":-0.023048405873028286,"310":0.06060654127690604,"311":0.39994143754044836,"312":0.12124603394142412,"313":0.060128741251216034,"314":-0.061017986960870386,"315":-0.0397170065647269,"316":0.018529068817377932,"317":-0.003802659146202384,"318":0.3181876229708636,"319":0.045153767113200835,"320":0.05336909747834038,"321":-0.015575181062380632,"322":-0.05294071405367328,"323":0.07218731661052964,"324":0.04398957759605632,"325":0.488422339375553,"326":0.07325424328106073,"327":-0.07151262931571194,"328":-0.0073152715772314535,"329":0.032009771891620104,"330":0.011988112907161874,"331":0.0435540175266747,"332":0.08692130589052584,"333":0.05402467554841559,"334":0.007728012622698118,"335":-0.047354748691409355,"336":0.021344892625143913,"337":0.043664377864461625,"338":-0.06712668861495409,"339":0.16566852003382987,"340":0.06619830714329678,"341":-0.04583152924022052,"342":-0.020305631005585193,"343":0.018741196838470836,"344":0.0034624021280108145,"345":-0.04388298902929831,"346":0.15402942094828845,"347":0.07314905494278788,"348":0.0024806086054996956,"349":-0.05875711889333466,"350":0.052797443423488036,"351":0.055869331102055414,"352":-0.10774448960905546,"353":0.09369566526486109,"354":-0.009812488677497197,"355":-0.0063197583822857,"356":-0.021964913583512508,"357":0.007337455271946184,"358":0.0019055322585708556,"359":0.02362619789975337,"360":0.13602174759211175,"361":-0.0660404273851974,"362":-0.07345093317376446,"363":-0.10211176370976406,"364":-0.02087544998837202,"365":-0.05127857992471432,"366":0.0016908358837436658,"367":0.09351704435539993,"368":-0.09579555660069144,"369":-0.020370062495311612,"370":-0.06187758929651771,"371":0.09589319107081606,"372":0.049082006220532555,"373":-0.0712004070976172,"374":0.14029111679789516,"375":0.021410847003934627,"376":-0.10142528488851874,"377":-0.057735479873334085,"378":0.029761236898643705,"379":0.03989429699179336,"380":-0.022510436910420636,"381":0.013187012095135195,"382":-0.058525259851388525,"383":-0.010582732928779662,"384":0.031227607212130082,"385":-0.024423857077615855,"386":-0.008019577962110195,"387":-0.08896589606174415,"388":0.01975427865708139,"389":-0.035867062126392985,"390":-0.0371612263727233,"391":0.05488804037871855,"392":0.011159399337631631,"393":-0.07632508738808969,"394":-0.07326428333797937,"395":0.012278353141903795,"396":-0.08901957076938884,"397":-0.08164518921636743,"398":0.037771365542282116,"399":-0.05629145374435596,"400":0.03517376826849564,"401":0.07938206869333479,"402":0.1530299221661383,"403":0.04981959656511744,"404":0.019658390937347184,"405":0.0026664543808473436,"406":-0.0639400801637424,"407":-0.01239354764375068,"408":-0.08893238792291722,"409":0.14317690433602898,"410":0.0496135625858711,"411":-0.03645166754214112,"412":-0.08702511323926473,"413":-0.028879291319014486,"414":-0.07489354859724398,"415":-0.03956041880265395,"416":0.026557843420903414,"417":-0.12341982909865291,"418":-0.009015385740065858,"419":0.01765754691947102}},{"sx":1,"sy":1,"depth":420,"w":{"0":-0.02004303634083976,"1":0.05564364435386986,"2":0.02500566821404448,"3":-0.0793874124875575,"4":0.05274986109197468,"5":0.032096575190281806,"6":-0.05713743579412837,"7":-0.03853859045913478,"8":-0.08415642870036331,"9":0.04792229368112677,"10":0.008798299587131587,"11":0.013085054456781747,"12":0.08878771585973746,"13":0.038274502329576326,"14":0.039159629013344806,"15":0.057786720444501984,"16":0.03196941168439864,"17":-0.06239020728462787,"18":0.03700571020859703,"19":-0.048654586426737936,"20":0.019477414606670816,"21":-0.0017969223321623838,"22":-0.07089016381168588,"23":-0.002073268020612017,"24":0.0012358531282111267,"25":-0.04379017078917996,"26":0.00990380706749977,"27":-0.03577141938980301,"28":-0.010573384628845018,"29":-0.01180290964725461,"30":0.052689925432053614,"31":0.009230781273515553,"32":0.015002744248333042,"33":0.04305634670034642,"34":0.0672669273136827,"35":-0.09846618808426251,"36":0.04125887704010911,"37":-0.043490270508378774,"38":-0.011446560994525052,"39":0.010422162719741293,"40":-0.017428008566458694,"41":0.056714546846078275,"42":-0.030614645014855706,"43":-0.0001613092305388735,"44":-0.001774745271755064,"45":0.0031017487339414667,"46":0.012717435137709109,"47":0.006617235980108369,"48":-0.015052696227312685,"49":-0.000016976415263790322,"50":0.02412017470072184,"51":0.0017842687810717818,"52":-0.032351506307006686,"53":0.05301656243644155,"54":0.056423867586107394,"55":0.06553525102336977,"56":-0.09119537132692278,"57":0.03253066186597241,"58":0.08272983436387528,"59":0.05015408691632784,"60":0.029127030112792534,"61":-0.015561366726254949,"62":0.019440247548525882,"63":0.03167853417262164,"64":0.013706070445765963,"65":0.13548770030586557,"66":0.04363561684137421,"67":0.031234590269463874,"68":-0.01619071924677515,"69":0.03192252433323842,"70":-0.09371332561307501,"71":0.03262282399742668,"72":-0.08336062495440809,"73":0.005502700034443732,"74":0.08762780894537642,"75":0.08883790813893877,"76":-0.051004689413787184,"77":0.06324627204699576,"78":-0.04309316009961142,"79":0.029743424316305684,"80":-0.008730025447412665,"81":0.009940216309816844,"82":-0.025476639972842257,"83":-0.004764418451740804,"84":-0.039600090868233094,"85":-0.005666426532958878,"86":0.07931965617709073,"87":-0.07549353550688849,"88":0.03887909245540977,"89":0.05241201764735069,"90":-0.03607817246959552,"91":-0.03688865023436599,"92":-0.004800790086798497,"93":0.03480976935770866,"94":-0.01980546079400041,"95":0.03259459695806844,"96":0.058634765497632906,"97":-0.038795102517209135,"98":-0.047434020549159704,"99":0.1257954856551483,"100":0.02624328671614425,"101":0.03958219712027808,"102":0.05964237163184085,"103":0.013490096852360923,"104":-0.015125164526550671,"105":-0.0064028642337959985,"106":0.003511139581767916,"107":0.05615346750163595,"108":-0.07331810704638357,"109":0.019287055900001692,"110":-0.004604825448068826,"111":0.04593806084937933,"112":-0.05047366630519583,"113":-0.01822853342878403,"114":0.06980597986648696,"115":-0.018620746943376607,"116":-0.020175518808900124,"117":0.032649089172479946,"118":-0.015545774527309571,"119":0.09251563870303016,"120":-0.06997672575135935,"121":-0.038572011006335435,"122":0.028927551228929416,"123":0.01809164204499459,"124":-0.05531161392494583,"125":-0.04790834471460811,"126":-0.028607824514874293,"127":0.0895933598173395,"128":0.039097502288459485,"129":0.035789927096138825,"130":0.042241888456505276,"131":0.04893108297683084,"132":0.061089799603834524,"133":0.04345836403933274,"134":0.03125005619537815,"135":0.031006330360973826,"136":-0.0391101043651236,"137":-0.00281273127794602,"138":-0.029644421281957566,"139":0.013447548594217195,"140":0.04872715354131953,"141":-0.0910090176040958,"142":0.06741415576731373,"143":-0.025286527995283522,"144":0.07116231599259219,"145":0.008935037152610159,"146":-0.015143016565284858,"147":0.08462293054174526,"148":-0.04714137533195116,"149":-0.05708235244878091,"150":0.01106324511469562,"151":0.026809660172692387,"152":0.06554487794797022,"153":-0.011024823607331037,"154":-0.07351293980747867,"155":-0.04654484449390991,"156":0.031624748619988534,"157":0.04848450624153938,"158":0.05382136373746078,"159":0.0730431088955853,"160":0.055462819624703855,"161":-0.01846138221987803,"162":0.01573097275108411,"163":-0.07621388855170483,"164":0.013875306819747319,"165":-0.04113639943447437,"166":0.010055026052666166,"167":0.03032773477479709,"168":0.07141012342550548,"169":-0.029314955280269617,"170":0.034615654908274854,"171":0.038825740029005115,"172":0.05582581368573603,"173":-0.031095863185579508,"174":-0.03369364139765504,"175":-0.018133358120293524,"176":-0.07709662368906539,"177":-0.033386303624187486,"178":-0.04571495496012759,"179":0.023345993875722504,"180":-0.03813212147700428,"181":-0.013267543998135069,"182":0.003927092110951266,"183":-0.030986542073086258,"184":0.0007746787894819275,"185":0.04196290107540882,"186":0.02078708550825319,"187":0.07276972850733694,"188":0.02022093856443949,"189":0.03481678305405557,"190":-0.03702268639823814,"191":0.008561676731370047,"192":0.1876983848511737,"193":-0.007864337793747945,"194":0.020855984913996317,"195":-0.0012551216723326077,"196":-0.01228185109701859,"197":0.025365066517521632,"198":0.0487164217941807,"199":0.07056122048355035,"200":0.006596459100433301,"201":0.0007031330431879553,"202":-0.02226808356701012,"203":0.055198744442723546,"204":-0.025635429486351,"205":0.0040189685203204754,"206":0.0371095308915673,"207":0.027250630261398484,"208":-0.00011810313036305125,"209":-0.026754376731388696,"210":-0.019753295806326482,"211":-0.0659134681396081,"212":0.009895672215128578,"213":0.058056259960462264,"214":-0.03982425658280557,"215":-0.015331094014733737,"216":-0.02979411879244222,"217":0.05415775694233288,"218":-0.010996994126105214,"219":-0.04500659585824688,"220":0.11697341484414663,"221":-0.058241007755412855,"222":-0.02423656656927122,"223":0.042712450248946945,"224":-0.02073116120485653,"225":-0.035614859845918154,"226":-0.03253531546535771,"227":0.17919089951361034,"228":0.04244773587797591,"229":0.02854290329341226,"230":-0.024822569555647645,"231":-0.03504306044789279,"232":0.09301300526072305,"233":0.061638027046546036,"234":0.17383905074433334,"235":-0.03441817083189856,"236":-0.05041293955583191,"237":0.0314356698061942,"238":0.018827866145309503,"239":0.014967356877041382,"240":-0.09389227475028457,"241":0.2935820421278575,"242":-0.0015023525489448065,"243":0.0164103031947662,"244":0.0700250999914636,"245":0.05421993772692942,"246":-0.01857206212505966,"247":-0.05606533968253646,"248":0.36219524610917575,"249":-0.07740560362612806,"250":0.02561408388836861,"251":-0.09663988296175269,"252":-0.0006421084954042669,"253":0.0038437669306151407,"254":-0.011182545586671326,"255":0.411895148339494,"256":-0.03642506384660346,"257":-0.08402130551527535,"258":0.00611959536614048,"259":-0.07396233992170838,"260":-0.01598085244831282,"261":-0.006984608793818666,"262":0.5614687216013701,"263":-0.03581214568820784,"264":-0.07166374314486892,"265":-0.0681118898513794,"266":-0.00734187354551047,"267":-0.020006527229380722,"268":-0.05660272298455055,"269":0.47312437446546046,"270":-0.08651038233338391,"271":-0.08160923580723037,"272":0.017771850552458484,"273":0.05079354332010569,"274":-0.03754124643331789,"275":-0.139471673138027,"276":0.6164742455464112,"277":-0.11479053648256057,"278":-0.03925544662555591,"279":0.0498322588858728,"280":-0.028992753220192163,"281":0.02392715008390075,"282":-0.12706844381827043,"283":0.5118017431073323,"284":-0.2180971160983038,"285":-0.1202530308398737,"286":-0.07117260578498366,"287":0.04145949446826193,"288":-0.038243845005480184,"289":-0.15170992373120581,"290":0.39324391106626144,"291":-0.2909913485811167,"292":-0.02335287241892403,"293":-0.0368054643067562,"294":0.0006380563363880103,"295":-0.07591521148924366,"296":-0.14338739996245556,"297":0.3283315265135591,"298":-0.1762326320128101,"299":-0.09372414563751473,"300":-0.038586633741777475,"301":-0.007680819019293288,"302":-0.03780071122397511,"303":-0.1708269967871753,"304":0.43313411136587354,"305":-0.2366737635099889,"306":-0.11411135839275342,"307":-0.030975401393950695,"308":-0.018334132118044133,"309":-0.009848327901109252,"310":-0.22822798968128585,"311":0.3117830122539602,"312":-0.3437626390943628,"313":-0.04114454183556224,"314":-0.004629237079079514,"315":0.0472652313109525,"316":0.032087683148465565,"317":-0.1621003155983193,"318":0.19194168494638345,"319":-0.3255247950716802,"320":-0.03385221863995316,"321":0.006445179635989164,"322":0.0392542745316705,"323":-0.012868478303765812,"324":-0.2145166809768019,"325":0.12657697325736642,"326":-0.21140648652835278,"327":0.04221914465269201,"328":-0.011177762422888452,"329":-0.04653001525154089,"330":-0.029533314378438744,"331":-0.0801481011185314,"332":-0.3111605737687906,"333":-0.21819356354498703,"334":-0.05486844939246443,"335":-0.09866535791932673,"336":0.044135698608071185,"337":0.07442542489307122,"338":-0.06606110099630572,"339":-0.33187332921420004,"340":-0.13446066747304633,"341":0.03273482016498722,"342":0.015235781262963464,"343":-0.02139352845200991,"344":-0.03608620849326823,"345":-0.11269133641204472,"346":-0.34087406688647476,"347":-0.03624236916282589,"348":-0.007516957374056062,"349":0.0644186912943373,"350":0.03328101432161913,"351":0.06009171643834468,"352":-0.07575594700483253,"353":0.07752319653026722,"354":-0.07408416083664614,"355":0.04573533048894419,"356":0.009550772620955458,"357":0.02798664427587496,"358":-0.00013769507436069397,"359":0.011035226587222923,"360":0.03167121293185626,"361":0.038411161448602155,"362":0.012541080869783366,"363":0.0261810375883123,"364":0.07025470021105358,"365":0.054203909435330135,"366":0.07647616775940914,"367":0.06411298566283397,"368":0.05300226670771608,"369":0.013467874470671696,"370":-0.006413750894994536,"371":-0.02119041663325802,"372":0.04906253195578537,"373":-0.004537908420246294,"374":0.01564855083464199,"375":0.008439939824490556,"376":0.05530871412421021,"377":-0.032726078738956485,"378":-0.010727987772716193,"379":-0.01700292693818714,"380":0.13159056500660934,"381":-0.4877255524078808,"382":0.11264667235533465,"383":-0.052018480054541884,"384":0.04699879200623114,"385":-0.02721564776110347,"386":-0.013928079928678958,"387":0.010249315979875221,"388":-0.5194826104969429,"389":0.10771589162783517,"390":0.06397988888182447,"391":-0.07367442152702633,"392":-0.014969319396917887,"393":-0.00600819034314285,"394":0.050599351837748295,"395":-0.5572250107152154,"396":0.04745789852236292,"397":0.04600043911171973,"398":-0.04101246593428603,"399":0.013459313784404413,"400":-0.015627192158416233,"401":0.08587596164186614,"402":-0.20563133965498112,"403":0.01849156484294917,"404":0.036224995448013386,"405":0.015161420820006922,"406":-0.0326556622957377,"407":0.08027642189777694,"408":0.04501256500391835,"409":-0.10809516823968472,"410":0.002277537656516078,"411":-0.012199963026170324,"412":0.050512157839897875,"413":0.03412122070849454,"414":-0.01652231808248828,"415":0.0009234615031535456,"416":0.00518824515258173,"417":0.10505309905970957,"418":0.015395935004821318,"419":-0.0671128105794554}},{"sx":1,"sy":1,"depth":420,"w":{"0":0.003748327683311414,"1":0.039908611023391674,"2":-0.0032423051103209533,"3":0.015502096596095496,"4":0.03143416077660861,"5":-0.052742047035930946,"6":-0.0052003543052890995,"7":-0.021910905222863687,"8":0.10032881186384267,"9":0.021286495962895398,"10":-0.06470961315843193,"11":0.009728750510284276,"12":-0.02235841018601296,"13":-0.08118860536130311,"14":0.06562408669092129,"15":0.05562518986832266,"16":0.03426202402917305,"17":0.06166530692034126,"18":0.09755950706992163,"19":-0.05567650458325319,"20":-0.07803316429281078,"21":-0.02746494982247769,"22":0.01577441250069013,"23":0.0148194757097726,"24":0.01802908724364182,"25":-0.05643026371250442,"26":-0.05939653343561729,"27":-0.003731803385831546,"28":-0.04355021130477112,"29":-0.04354364699082617,"30":-0.002935645817713004,"31":-0.03617396398768157,"32":-0.056258485088778176,"33":0.009050477559900898,"34":-0.08552210646783562,"35":-0.0021693078206855144,"36":-0.029052049430998608,"37":-0.0635072512852488,"38":0.04629244636779117,"39":-0.12216077217408687,"40":-0.04180410055888816,"41":0.05990208922806105,"42":0.1152392593801986,"43":0.029575799519800654,"44":-0.05499428649573296,"45":0.06269036857266663,"46":-0.026000999020893045,"47":0.024243030042982276,"48":-0.002924400764239571,"49":-0.05346984450396681,"50":-0.003650211171028349,"51":0.09225107896901717,"52":0.036806104120990606,"53":-0.0689956427267335,"54":0.009628321897817444,"55":-0.03870907747213663,"56":-0.03228402627464287,"57":-0.017928787461172074,"58":0.0878429990233962,"59":-0.027753219591889786,"60":0.0201400881138829,"61":0.017017993602413368,"62":-0.05801190925185323,"63":0.058889598500852826,"64":-0.030828012150368643,"65":-0.016297699110892853,"66":-0.06426814567125645,"67":-0.1278499598104851,"68":0.0026439623090694143,"69":-0.11791205602560956,"70":0.016302662455614805,"71":-0.024616104335295493,"72":0.014118888914272942,"73":-0.04454172868418838,"74":-0.038830536421963206,"75":-0.07344323663584557,"76":-0.0575656805618984,"77":-0.04780614377435486,"78":0.053288367192830435,"79":-0.0355324137920357,"80":-0.07322108640804241,"81":-0.046116153959345194,"82":0.0851361919518996,"83":-0.06472514012223701,"84":0.07682844051432215,"85":-0.024532993894734574,"86":-0.017121541799249382,"87":-0.09531172192770049,"88":0.035755051565657586,"89":-0.0006922427708092372,"90":-0.02804659712171534,"91":0.017714854219864597,"92":-0.028797676220279327,"93":0.06807182797257734,"94":0.04747665270868019,"95":-0.06514116600809704,"96":0.029481357453429953,"97":-0.0667620626405625,"98":0.0027799942216133414,"99":0.04372472728733279,"100":0.1195583280111186,"101":0.015526002760487958,"102":-0.06900606058296962,"103":-0.040972214353250866,"104":0.02262837358667158,"105":-0.07567932487981546,"106":0.030669523836047038,"107":0.07758676652563429,"108":-0.007655411938600521,"109":0.004195707940887068,"110":-0.03577827230071048,"111":-0.03745673629424056,"112":0.0370490568962698,"113":0.015269507062929726,"114":0.0700153216859614,"115":-0.017296995326914765,"116":-0.03141362405382522,"117":-0.003444140933666682,"118":-0.04135570551128234,"119":0.001135112515524981,"120":-0.006055370654356255,"121":-0.016562710021848927,"122":-0.028741826471957794,"123":-0.0006702918893417275,"124":0.032010424208581634,"125":-0.07981797454477135,"126":0.046666658597726944,"127":-0.00998977868778805,"128":0.02582315790148848,"129":-0.11256991154581998,"130":-0.05535586067551747,"131":0.04371977206053291,"132":0.024861815088604914,"133":0.014588403170516543,"134":0.004121424312143675,"135":0.0321821800716022,"136":-0.12900094116563882,"137":-0.06480152871129369,"138":0.07124088540909415,"139":-0.02412718650484078,"140":-0.02109832590270809,"141":0.056706724573496584,"142":0.06082467355026537,"143":0.01604009745637175,"144":-0.040391558698826,"145":-0.06477221486778868,"146":-0.0935678895032724,"147":-0.04126717063863117,"148":-0.05118977421255071,"149":0.05110838310379927,"150":-0.052805658915645294,"151":-0.10550696727758478,"152":0.033012445838684915,"153":-0.1522610044032219,"154":-0.0190380572463389,"155":-0.024955671641611995,"156":0.037589333144473214,"157":-0.027017939262239277,"158":0.02797793453228284,"159":0.0729573701237266,"160":-0.11989103830331076,"161":-0.006682166028564351,"162":-0.058210209461649724,"163":-0.02126266644360635,"164":-0.028271239363405885,"165":-0.03454580828963721,"166":0.050367715287777004,"167":0.018284652801769895,"168":0.03547180634618998,"169":-0.015556430084950475,"170":0.02941792894984217,"171":-0.04216647389589933,"172":0.039146259204412885,"173":0.07302827069937234,"174":-0.07057500819387189,"175":0.0186367569019824,"176":0.00904469186243448,"177":0.12696081796809944,"178":0.004275884567583808,"179":-0.020606794704154243,"180":-0.016974974473565028,"181":-0.0031151380468598757,"182":-0.01536407267558081,"183":-0.052690704667545996,"184":0.049406291184358776,"185":0.070341516436729,"186":-0.012548552675707982,"187":-0.014483812483477158,"188":-0.08977186261430085,"189":0.0026044962722181157,"190":0.06876881264651777,"191":0.011018658135738055,"192":-0.03585015838596255,"193":0.006496090172747373,"194":0.031223347326088096,"195":-0.04388633017745643,"196":-0.04841181542389015,"197":0.08063147492714025,"198":-0.04931050086715711,"199":0.0007474437980589157,"200":-0.031236957021379384,"201":-0.04340871430275658,"202":0.003339871984457124,"203":0.02694905092055644,"204":0.13348932092577231,"205":0.0559693083697356,"206":-0.14161502815847107,"207":-0.020632181689532684,"208":0.05376949383248719,"209":0.020609887223538494,"210":-0.07321708127444326,"211":-0.03647969741444886,"212":0.17437688089332912,"213":-0.084015398997503,"214":-0.06919439213370121,"215":-0.16378539855038082,"216":0.051437661109158386,"217":0.07123526485900958,"218":0.009841885114127646,"219":-0.0452714046928402,"220":-0.03889789262130981,"221":0.036817165515295985,"222":0.07006168208416678,"223":-0.03567816936175547,"224":-0.11567305558310184,"225":-0.00006673412739792401,"226":0.12284337126204124,"227":-0.04395496449886616,"228":0.038190998095021154,"229":0.04342691942595186,"230":-0.10417161950087443,"231":-0.023152516540338928,"232":0.09407542789640191,"233":0.021282417209620895,"234":-0.02082985568124247,"235":0.052666546120883326,"236":-0.008200237833736183,"237":-0.04656052698911392,"238":0.016887190899885517,"239":-0.032872358864422996,"240":-0.02820029351339323,"241":0.02896256351060923,"242":0.05395012139751921,"243":-0.03479449216613601,"244":-0.07399798079753415,"245":0.007408571550039575,"246":0.0063528209195658925,"247":0.02677275341348438,"248":-0.019251276022292624,"249":0.12877758765462763,"250":-0.03352641490671188,"251":-0.027371106443914713,"252":0.07277359693851455,"253":-0.03022052611891174,"254":0.11198138632938531,"255":-0.1124733473076097,"256":0.03522144198938186,"257":0.08789941679485926,"258":0.046114143535909674,"259":0.08054288340102525,"260":-0.02991624850608211,"261":0.0003038986753426342,"262":-0.018624741922466315,"263":0.21083953470355804,"264":0.02672398312837054,"265":-0.0936401298470482,"266":-0.05114386291113868,"267":0.0019521687609116887,"268":0.08020547016026598,"269":0.06876990111989797,"270":0.03190838083413986,"271":0.0012033515184416445,"272":-0.05884524104707724,"273":0.034600812518437864,"274":-0.03810493624420941,"275":0.11322951489307008,"276":0.1029169516205115,"277":-0.016050404388413698,"278":0.11870545880191609,"279":-0.019159312883327183,"280":-0.03173986624011224,"281":-0.06687168825662325,"282":-0.04822801572441759,"283":0.06935959342782273,"284":-0.15215207045967843,"285":0.025722304709137125,"286":-0.004654227888581654,"287":-0.06609133319315962,"288":0.022937852451591505,"289":0.0158479288985912,"290":0.1510163868186715,"291":-0.12003320455609204,"292":0.08941360027325856,"293":-0.08041222636102144,"294":0.03141357061165988,"295":0.00806848028029701,"296":0.0564122230871029,"297":0.012381514021415668,"298":-0.03132831470664865,"299":0.10972966166828757,"300":-0.01720812481401431,"301":-0.11260281895225051,"302":0.021776030634264934,"303":0.1248602659661832,"304":-0.020796310474917635,"305":0.11710139867464697,"306":0.1099285429707862,"307":-0.044122830400829136,"308":-0.028154910412926608,"309":0.03630030700343805,"310":0.11598218524385466,"311":-0.044624429011138354,"312":0.2000368109650448,"313":0.010600941147171108,"314":0.017014091113258693,"315":0.006711520341335613,"316":0.014214709754046389,"317":0.028587279613184358,"318":-0.07203376442857151,"319":0.12301353265202981,"320":0.11613564002513993,"321":-0.06913995675912515,"322":0.02597886042148759,"323":0.11241030458365586,"324":0.1644537777824011,"325":-0.12595182755557577,"326":0.04229532189314265,"327":0.005153828141836731,"328":-0.027253963346680052,"329":0.03459403288413371,"330":0.02199982353280449,"331":0.10790965206847061,"332":0.021415057656595373,"333":0.024006611431783977,"334":0.02375662330442676,"335":-0.016606660784440994,"336":0.04660949327439972,"337":-0.004195926464114882,"338":0.1990186364925297,"339":-0.11072324716667685,"340":0.049412686564239354,"341":0.07149712133378057,"342":-0.06615645434835216,"343":0.0427469938312184,"344":-0.016669225191769825,"345":0.19614184436951307,"346":-0.01307958742699557,"347":-0.04919636157038008,"348":-0.004999460801188867,"349":-0.017282943854236735,"350":0.06335437239114552,"351":0.03164108675686966,"352":0.10155964125108195,"353":-0.10647761977799439,"354":0.021475245724406226,"355":0.07462655643357724,"356":0.0024742432644196386,"357":0.08627135433101736,"358":0.05468069598539362,"359":0.16878133689836525,"360":-0.02018969921328813,"361":-0.050438960826581676,"362":-0.024318266955892388,"363":0.009087042541976755,"364":0.017603114783905208,"365":0.08736996709288668,"366":0.04415981399622155,"367":0.006501172096623711,"368":-0.09307025354422305,"369":-0.03725138691279533,"370":-0.06766928220643541,"371":-0.06901619630595059,"372":0.004614058034354006,"373":0.1070404861868121,"374":0.06870986055406794,"375":-0.05695753622964523,"376":-0.03162976207214523,"377":0.01792541480650983,"378":0.01384305694800093,"379":0.03957603940430593,"380":-0.033501744299353,"381":-0.012245236886166345,"382":-0.04684521516292241,"383":0.022983583528770002,"384":0.009146458261275298,"385":-0.034458859616123896,"386":0.023109481294967517,"387":-0.002441408778209595,"388":0.03869973612498584,"389":-0.04976023468257184,"390":-0.02967037452790096,"391":-0.007493944772924176,"392":-0.023032531275361746,"393":0.03249530513680586,"394":0.046255262822165834,"395":0.009564087426984452,"396":0.009341035094914475,"397":-0.056802071270018406,"398":-0.01919513145827041,"399":0.041748927030075225,"400":-0.023206268923659276,"401":0.0645797114320216,"402":-0.16688515596923842,"403":0.12430071817123874,"404":-0.0009171954840125657,"405":-0.03416758579959806,"406":0.03294313887855067,"407":0.0053787242481564655,"408":-0.01364950088033215,"409":-0.07649764911169592,"410":-0.03110458885029842,"411":-0.015506205220019335,"412":-0.04978770139325403,"413":-0.01110987282030571,"414":0.04409787383276284,"415":-0.025101272096127884,"416":0.004761241764708144,"417":-0.07628420906061517,"418":-0.04387314611644124,"419":-0.051759620472148785}},{"sx":1,"sy":1,"depth":420,"w":{"0":-0.05598350877031064,"1":0.020021055055467103,"2":-0.09872872039708025,"3":0.004427199563550532,"4":0.07879442962607656,"5":-0.02348996107531745,"6":-0.02206786574037187,"7":0.045012205641807274,"8":0.03856082314209696,"9":-0.029681330214930433,"10":0.05266045155339945,"11":0.05590106546566739,"12":0.067754228361227,"13":-0.0007180816375899257,"14":0.027205152235699904,"15":-0.002478819609229937,"16":-0.01210617990367083,"17":0.0737618030682751,"18":0.003927014342276551,"19":0.013035441243428751,"20":-0.015795491890369256,"21":-0.0386963373218933,"22":-0.03791731493651858,"23":0.022316977419010984,"24":-0.029325200350487347,"25":0.001624855165561582,"26":-0.06356216400178753,"27":0.0019591641074177186,"28":-0.07293155469357576,"29":-0.03322849202726862,"30":-0.08517764035374703,"31":-0.035150925614195284,"32":-0.026795853501522197,"33":-0.025479564027878602,"34":0.128662270821387,"35":-0.04074252531999365,"36":-0.016318787396090925,"37":0.025242938579383815,"38":-0.04912896428667848,"39":0.07234304971877308,"40":0.04442726864616153,"41":-0.07511789220268833,"42":0.03629219951686116,"43":-0.057264485693176145,"44":0.019112980012823567,"45":-0.04714644502319048,"46":-0.04574540361582931,"47":0.026628609687673183,"48":-0.05337135816054191,"49":0.02125104145868379,"50":0.022324733735210784,"51":0.025379843350690635,"52":-0.006811021970767219,"53":-0.030971677872858025,"54":0.03653912090288503,"55":0.04773622323423102,"56":-0.07287578663035894,"57":0.03219674267185248,"58":0.05251924581893317,"59":-0.0037924721362622873,"60":0.02299883715101411,"61":0.07479707863060978,"62":-0.10639570518113992,"63":0.044239267682673535,"64":0.010604605979747599,"65":-0.05045844499755199,"66":0.0068500728258251665,"67":0.09356909952215994,"68":0.026988622703398177,"69":0.029579559505152467,"70":0.004817226842612548,"71":0.01054013560680454,"72":0.009448079967506101,"73":-0.02660556354045593,"74":0.04273864598900865,"75":0.09485285028197916,"76":0.07960493708275658,"77":-0.05109496515031204,"78":0.032198958435145746,"79":-0.0324907411089284,"80":0.046590356535300186,"81":0.017377124622855632,"82":-0.05248079292137858,"83":-0.012299257104222886,"84":0.008159312657215246,"85":0.030941590325680078,"86":0.011287937056579173,"87":-0.06545309780059447,"88":-0.09608094685078733,"89":-0.0023692453736674805,"90":0.024449738291279687,"91":-0.12399272936917247,"92":-0.024232756950767695,"93":-0.0009559792712052188,"94":0.06691465479447972,"95":0.005910103374313722,"96":0.02014096364957771,"97":0.04296261209074345,"98":-0.059482807504706046,"99":-0.01920476209645045,"100":0.08348127956727723,"101":0.11520064465960195,"102":-0.0015379176623059852,"103":-0.013921255390915651,"104":-0.032520508796515725,"105":0.0044574812547403045,"106":-0.06698930557331659,"107":-0.029083510152537163,"108":0.021497476123476803,"109":-0.01143972967735747,"110":-0.0023997598995533294,"111":-0.03480608388119292,"112":0.09732986460643127,"113":-0.014617829616199932,"114":-0.05864898262778998,"115":0.009651124989581063,"116":-0.022133771157631814,"117":-0.04903446877127317,"118":0.005281792482479503,"119":-0.01991557590241456,"120":-0.005985076379896792,"121":-0.007888596004752278,"122":-0.04908817699617978,"123":-0.060646561409695786,"124":0.0010511008168609308,"125":-0.04876053213394964,"126":0.04653165571382672,"127":0.02774265486271299,"128":-0.07830348990108427,"129":-0.02461613946786949,"130":-0.05591045354711574,"131":-0.015595588010853832,"132":-0.012711774828810305,"133":-0.030282848656671715,"134":0.00870045441168885,"135":0.03231454148750159,"136":-0.0322004944429339,"137":-0.0320595464909146,"138":-0.02557607827180331,"139":-0.01796167633629286,"140":0.060859836293801546,"141":0.026039466147169836,"142":-0.007558951825733228,"143":-0.006201917147546862,"144":-0.013572180150007966,"145":-0.0317876072142723,"146":-0.010143408577558749,"147":0.09086777896034134,"148":0.004538472559316157,"149":0.028185943296117486,"150":-0.008122505514008888,"151":-0.028497135387139962,"152":-0.050234656796667505,"153":-0.00269348974465081,"154":-0.024968350453823132,"155":-0.07145279982473507,"156":-0.0856699751942086,"157":-0.028800997438046875,"158":0.006911484929199551,"159":-0.031977500468085056,"160":-0.0060613646662295816,"161":-0.04033981060299496,"162":0.02891868513313337,"163":0.08803660214142252,"164":-0.013298980497788191,"165":0.02610433567248261,"166":-0.01101494003532799,"167":-0.09941561843736142,"168":-0.01544891464971608,"169":-0.062352984516522464,"170":-0.07900433847962077,"171":-0.02855573099750448,"172":0.0003623858746012569,"173":-0.015389336034796215,"174":-0.052268174772339845,"175":0.07025108952039519,"176":-0.007008932063963817,"177":-0.024118589873789557,"178":-0.006725371124657836,"179":-0.02093306172992767,"180":-0.04243959421624446,"181":0.0437586630466446,"182":0.0458811751430131,"183":0.04332352023963581,"184":0.0089535848616998,"185":-0.03108950833321935,"186":-0.07321253633040592,"187":-0.1447376166298902,"188":-0.033355639332828674,"189":-0.014845078559446782,"190":0.05712496631959965,"191":-0.07395538013848557,"192":0.06464902627507262,"193":0.09302806026189857,"194":-0.0601460979381779,"195":-0.05921347869417915,"196":-0.05239708406701044,"197":-0.008503995637936872,"198":-0.04164625575463359,"199":-0.026109635073009584,"200":-0.02568135186776357,"201":-0.0021480939569517893,"202":0.02323981052402115,"203":0.013471298208947845,"204":-0.07417872012240115,"205":0.055758520889160286,"206":0.02135381118251792,"207":0.08670312623246332,"208":0.01593592459690877,"209":-0.10395141085615481,"210":0.002767587912167651,"211":-0.01330097346870691,"212":-0.00403504998050425,"213":0.01580640685415878,"214":0.033444630397967544,"215":-0.02874349504837062,"216":0.010293537786427954,"217":-0.049293074343608384,"218":-0.04384745445171199,"219":-0.025290025006836178,"220":0.01538042191727181,"221":0.003416718095860001,"222":-0.011471433742388485,"223":0.06085931114658958,"224":0.008438990520368936,"225":0.018434690203124604,"226":-0.016469968267790645,"227":0.00931172073956809,"228":-0.029915403396597116,"229":-0.01721738417161361,"230":-0.004583665574997357,"231":0.04439114032777804,"232":0.05303653224783573,"233":0.07934458898371766,"234":-0.004753931578230844,"235":-0.06320311051490109,"236":-0.028649985497300624,"237":-0.051126433863383204,"238":0.005226329587751522,"239":0.0014010595543467214,"240":-0.042371971932258154,"241":0.023445524303722768,"242":0.025581265377957147,"243":0.04236417144429824,"244":0.02171799237545892,"245":-0.0027187201049019326,"246":-0.03384974325848098,"247":-0.08109764401032207,"248":-0.014056811541160806,"249":-0.09525552036380652,"250":0.00038431837392635296,"251":-0.008567607250326499,"252":-0.026235292223646525,"253":-0.001416591753528095,"254":0.018667710548385577,"255":0.01840629284012419,"256":-0.0066346664510785955,"257":-0.046558165084169,"258":-0.02266065967877827,"259":-0.06718605586469527,"260":-0.0011383101399110348,"261":-0.05148921340072986,"262":0.00039451074533463607,"263":0.033546949634189645,"264":-0.05540721565924519,"265":0.03434122835224558,"266":0.028009274508494456,"267":0.05573779479526379,"268":0.014224112116661749,"269":-0.10805029607930684,"270":0.018528372394195306,"271":-0.025269118055689946,"272":-0.008715558882408677,"273":0.03340785434784085,"274":-0.016750741750965505,"275":-0.026816560357530356,"276":0.004289724404795924,"277":-0.04710461269742369,"278":0.012846383276467086,"279":-0.01495471826900463,"280":-0.035305839648669075,"281":-0.09541894904442272,"282":0.01078418031342272,"283":-0.01558919833951308,"284":-0.005096364014104109,"285":0.017453038228738303,"286":0.07944034648198922,"287":0.019094702952506162,"288":-0.05706108260767616,"289":-0.019587404784692408,"290":-0.042938022245705476,"291":-0.0190565605032306,"292":-0.037138065028351694,"293":-0.01717444859992439,"294":-0.010106381157423334,"295":-0.02169956243181379,"296":0.0343930587350893,"297":0.023088629919154186,"298":0.030088381816119388,"299":0.03129889924865675,"300":-0.01680323271537791,"301":0.03982285140497602,"302":0.04952071063383165,"303":-0.10541459048851601,"304":0.0044629828636877315,"305":-0.010915340170802095,"306":0.026645599627332525,"307":0.012851206706974563,"308":-0.04101290378265781,"309":-0.011762018614357292,"310":0.05757997621238956,"311":0.045402012200399036,"312":-0.0072135222841362015,"313":0.05847085687834799,"314":0.020463409232238366,"315":-0.04781066079500905,"316":0.01731775800526148,"317":0.03129363165604923,"318":-0.04833402926419013,"319":-0.0615308709741354,"320":-0.06755593612341482,"321":-0.019271128007456274,"322":-0.030074208222298403,"323":-0.008670494751472769,"324":0.036297893387866764,"325":-0.02188117622411097,"326":-0.048638191791580125,"327":0.10442419114103521,"328":-0.03175457296899442,"329":-0.02380157364475227,"330":-0.009698494747640084,"331":0.01413677535992956,"332":-0.02118770274849153,"333":-0.024176361806738066,"334":0.014179498728250115,"335":0.07451725281616971,"336":0.002628648156062728,"337":0.07374603247523978,"338":0.019433118044253204,"339":0.03859851735503862,"340":0.02110368402170864,"341":-0.02251795204630718,"342":-0.06909791150713512,"343":0.04594391146334528,"344":0.05607005111525572,"345":-0.007320986782997741,"346":-0.018096969717643522,"347":-0.030365043478096394,"348":0.0007138388965849071,"349":0.009597881947808938,"350":0.031274523679564036,"351":0.2146296192214191,"352":-0.000056261432970064765,"353":-0.06570613692425212,"354":0.058766686861849014,"355":0.049925398617618834,"356":-0.05579732225054888,"357":0.03521643948122163,"358":0.022127045503287906,"359":0.05146152540708787,"360":0.0047241502308087045,"361":-0.08687344363408192,"362":-0.021321176125398713,"363":0.04270835080261047,"364":-0.02246108060407491,"365":-0.03437942700948178,"366":0.005966591321961321,"367":0.09924087523538862,"368":-0.054829302200184886,"369":-0.006947695197044443,"370":0.028485215306029946,"371":-0.017109755919777016,"372":0.01807563172435924,"373":-0.06572293095430418,"374":-0.03757637652243408,"375":-0.002826763656851885,"376":-0.013907299315791159,"377":-0.0055703218195803875,"378":-0.04595770887729686,"379":0.03896221132141164,"380":-0.019321906777403565,"381":0.05433070564564095,"382":-0.028927005450213324,"383":0.12641978787927333,"384":-0.02828575985272571,"385":0.048381130871602195,"386":-0.003890157073930065,"387":0.01142980025023802,"388":-0.07848839217422164,"389":0.024844837982439957,"390":0.06681865464159749,"391":-0.024616776758538163,"392":-0.04352977589848209,"393":-0.04316213003469887,"394":0.05076032066466402,"395":0.013947417232892997,"396":0.042889101740264265,"397":-0.023799196336680418,"398":-0.04819608976143184,"399":0.025412587768612768,"400":-0.035866735096007844,"401":0.01533356438955916,"402":0.007976834652531073,"403":-0.05331172086775491,"404":-0.04112874931314631,"405":0.008130457564736071,"406":-0.05775296334259273,"407":-0.019241132428217834,"408":0.05022952605641455,"409":-0.12957477769374848,"410":-0.05984765416202845,"411":0.005489925563967118,"412":-0.03137484350017994,"413":0.04597186686876987,"414":-0.006167747043987057,"415":-0.035945940527186436,"416":0.07557568249871453,"417":0.06140112486198421,"418":0.005835765806195666,"419":0.035718009614406895}},{"sx":1,"sy":1,"depth":420,"w":{"0":-0.031354547876316315,"1":0.002754346896824768,"2":0.0002665481907229265,"3":0.008662429734557602,"4":0.025547111001642153,"5":-0.066928443186195,"6":-0.06733352684299841,"7":0.04325723131060042,"8":-0.038015108980135034,"9":0.07803318005689122,"10":-0.018710084469856128,"11":0.005479838815670908,"12":0.03913399167540411,"13":-0.02581660202842337,"14":-0.09440984010630975,"15":-0.04435476176332573,"16":0.034543904029390136,"17":-0.02948527724004214,"18":0.07031536072921311,"19":-0.007417274289000502,"20":-0.0076728906533848895,"21":-0.020610775480399187,"22":0.09628549665097645,"23":0.020263263518339857,"24":-0.028629237526238593,"25":0.021967271025782793,"26":0.04969623621578591,"27":-0.05255636851863072,"28":0.05176080269369769,"29":-0.014676976170047006,"30":0.05625413064485461,"31":0.04976342749885185,"32":-0.028422097156780946,"33":0.03297782172388039,"34":-0.08279054447073246,"35":0.014179026432892199,"36":-0.039014915219298014,"37":-0.01095006712203585,"38":0.03589159362152244,"39":0.022352845331658464,"40":0.007231017762720359,"41":0.033949850006475955,"42":-0.0061989991797421875,"43":0.05543175214889328,"44":0.05178500243843675,"45":0.012478540156921545,"46":-0.025300606385193637,"47":0.005708346849503887,"48":0.01092269365597787,"49":-0.09276015947786476,"50":0.03616896292815406,"51":0.013421199991663765,"52":-0.03169321828841344,"53":0.025396318065253033,"54":-0.04054669306268697,"55":-0.05211574684200488,"56":0.028569430269544796,"57":0.0052648575718190465,"58":0.02460487487642065,"59":0.003724223646324771,"60":0.032493373993467176,"61":-0.007208252213585214,"62":0.013254569539586841,"63":0.021014430856820844,"64":0.059380824641532236,"65":0.03782058053310614,"66":0.017069968757354156,"67":0.04748873454501873,"68":-0.005968503856125995,"69":-0.01838939799916501,"70":0.017581938937923647,"71":-0.008947648317173843,"72":0.11635322987967826,"73":-0.0604493805474021,"74":-0.049819333384620135,"75":0.11405517425073883,"76":-0.07395620931825737,"77":-0.06642472497696894,"78":0.001810949754115326,"79":0.059204765923696466,"80":0.06449453364836108,"81":-0.017813714614874323,"82":-0.017289517403228073,"83":-0.050874056782779786,"84":-0.03333190860376308,"85":0.0058031579184366164,"86":0.007109666759299172,"87":-0.014521657415610359,"88":-0.0356942782522324,"89":-0.047812979304139525,"90":0.02859129265219204,"91":-0.03084638592904722,"92":0.14772900582944987,"93":-0.03065926287874824,"94":0.0011503863062439024,"95":0.009637532526506018,"96":0.06124574142181922,"97":-0.018613878951143373,"98":0.021503252203521717,"99":0.10582986749097602,"100":0.05980731121557877,"101":0.01477627455767028,"102":0.04518127948465309,"103":-0.05435855273423219,"104":0.018672982331386055,"105":0.026753420669775332,"106":0.010187984951472401,"107":-0.03197585876830736,"108":0.02994899041448898,"109":0.0038227080017022097,"110":0.0215792989680173,"111":0.04084495649900378,"112":0.03133472538380672,"113":0.08569163329629813,"114":-0.012285705117970662,"115":0.014415714909996921,"116":0.041401852351896425,"117":-0.15510623727152703,"118":0.034408364900293156,"119":-0.025231752842541116,"120":0.037811563746253544,"121":0.03197765227801325,"122":0.005857273262660393,"123":-0.060989273932994595,"124":0.06767734401856146,"125":0.042598799021096596,"126":0.04109876857343521,"127":0.04906404126220845,"128":0.14162042486504467,"129":0.012068336837156078,"130":-0.010985716063219233,"131":0.009697014103110373,"132":0.005129823651624319,"133":-0.01261630901611772,"134":0.019891864290123757,"135":0.005517173279408906,"136":0.019712482195010712,"137":0.07540151067834527,"138":-0.07811956753170757,"139":0.01014983560506307,"140":-0.029583367993885792,"141":0.12690184869230672,"142":0.04264903321938882,"143":-0.01517120524688264,"144":0.041928416347370503,"145":0.0176124562758289,"146":-0.0772028925273261,"147":-0.009341241680797219,"148":0.056376892216209895,"149":0.074643220785226,"150":0.023118203601566766,"151":0.03984513788039493,"152":0.09109901000968104,"153":0.028925247281315108,"154":0.06227685088990157,"155":-0.024507323814884047,"156":0.11703668795865096,"157":0.014142291647234578,"158":0.04150004891219941,"159":0.02896012161740406,"160":-0.10787732801687586,"161":-0.01366247162611019,"162":0.09743713662795021,"163":0.06220214577080242,"164":0.06997258795143305,"165":0.0022777619459833157,"166":0.029034022507448014,"167":-0.05017975632116461,"168":0.008571227276653198,"169":0.02099094607857144,"170":0.09830174910790275,"171":0.016994143037234177,"172":-0.08976462321051215,"173":0.03847901569085966,"174":-0.04222957422979292,"175":0.06077247107258711,"176":-0.02675557444805251,"177":0.08574173014633775,"178":0.028445516085045093,"179":0.08956796856086888,"180":0.045519502775532315,"181":0.08063100963099917,"182":-0.0393130255021186,"183":0.04262125735716857,"184":0.03528282346292136,"185":0.04454506786817188,"186":0.08122277982075436,"187":-0.06206911137419883,"188":-0.03453043291843238,"189":-0.03139829286689867,"190":0.03257889408405787,"191":0.10204471359177948,"192":0.018686937177868852,"193":0.05059199462214197,"194":0.01115933941006008,"195":0.019281433811850764,"196":-0.009026642297851438,"197":0.08341210861203942,"198":0.11864538535936986,"199":0.12826085290186917,"200":0.12168964374570665,"201":0.0311645655262048,"202":-0.05973854436935758,"203":0.09565010856645953,"204":0.017371820654190625,"205":0.06554038536868408,"206":-0.012445436407706949,"207":0.0029093724859324526,"208":-0.04204962012424586,"209":-0.028653305836737593,"210":0.02458245304200444,"211":-0.055729502619957134,"212":0.09881214852683814,"213":0.056000076596728815,"214":0.09841982065373929,"215":-0.07152528671202496,"216":-0.021197826292762595,"217":0.05110316837384621,"218":-0.0037941336998898456,"219":0.15649599355473462,"220":0.08971769645076702,"221":-0.09885592310461994,"222":-0.0006505265893895466,"223":0.021677001766231465,"224":-0.004993432828649158,"225":0.08846857634769036,"226":0.10247426244424986,"227":-0.04795694021438565,"228":0.06161377465958295,"229":-0.002018878955986663,"230":-0.0009350209595518389,"231":-0.009664657431183919,"232":-0.018752527870890927,"233":0.12866675444167447,"234":-0.09678841233123772,"235":0.10574415730752684,"236":0.012953136556878126,"237":-0.05503001789334921,"238":-0.040081601229501974,"239":0.053085769967321575,"240":0.08284585934297217,"241":0.07939927204830641,"242":0.053002765125676324,"243":0.04766540590373731,"244":0.014413162701805501,"245":0.00048719462895542294,"246":0.0403912121834384,"247":0.12461110097426115,"248":0.02481738017582053,"249":-0.011851003539207802,"250":0.006523607891744059,"251":0.06794690278915662,"252":0.009248037633427297,"253":0.004708058309790236,"254":0.10578228118557458,"255":0.0543595281035713,"256":-0.005327355423420015,"257":0.002296158592238983,"258":-0.05547438987258646,"259":0.013433125877036121,"260":0.010673124556506536,"261":0.11228863836014637,"262":-0.0923075069554047,"263":0.07620614461503981,"264":0.040089291320495116,"265":-0.024006980301233244,"266":-0.03180227327790896,"267":-0.055562652843443014,"268":0.13398724818894736,"269":0.021846250737972573,"270":0.05935687881607612,"271":0.005356865741350452,"272":0.0012049057131609277,"273":0.05460404622890335,"274":0.02996331017930818,"275":0.08669060916288755,"276":0.1062508878408751,"277":-0.05814184210046572,"278":0.08830712593016546,"279":-0.023215068283798403,"280":0.019454166551769524,"281":0.02690009282346805,"282":0.0397655724570405,"283":0.10717972347096875,"284":0.11713570500733658,"285":-0.010357923628411324,"286":-0.02695601591180924,"287":-0.0083865212372235,"288":-0.03496998613316362,"289":0.1550865908948253,"290":0.24634139000291738,"291":-0.025876223567477843,"292":-0.03139561423849399,"293":-0.08825795798439667,"294":0.0028189393890374987,"295":-0.02971586620001019,"296":0.15643123826006142,"297":0.1000180750062222,"298":0.1369434039093419,"299":-0.002805225885811095,"300":-0.09912257282899073,"301":-0.04437276454213066,"302":0.060973780122775975,"303":0.20372458049576128,"304":0.45788589549121467,"305":0.04277969566887124,"306":-0.014193864535383375,"307":-0.03554244036294337,"308":0.00840615290940164,"309":0.05755665805121425,"310":0.32382031028280117,"311":0.40102766893082525,"312":0.2909405319416773,"313":0.03688645853927643,"314":-0.02763633652851654,"315":-0.025797349773813975,"316":0.06040833815788979,"317":0.27900656273748786,"318":0.3525202628111307,"319":0.06613175894850369,"320":0.028654745303303947,"321":0.0017766184399626843,"322":-0.03251683562236212,"323":-0.04758443959831913,"324":0.21941675691916165,"325":0.4537847444482448,"326":0.12363995698407824,"327":-0.029733170854307968,"328":-0.02760886520192767,"329":-0.03939736942148321,"330":-0.09981310708937588,"331":0.2013687438459764,"332":0.04107720099629171,"333":0.030982112194442423,"334":0.013417982977432677,"335":0.0611308271953809,"336":0.005398410435913922,"337":0.046987460224285314,"338":0.22491367412315233,"339":0.10117472928561995,"340":0.15837374590101091,"341":0.020190302394093838,"342":0.005077578377102689,"343":0.09457428528360962,"344":-0.029864449791467254,"345":0.20218041286365784,"346":-0.05339673517218996,"347":0.09766894286447245,"348":0.0077647099498238436,"349":0.024869386708276153,"350":-0.022010460783986774,"351":-0.03431002978431525,"352":0.12865937468630273,"353":0.12731287063888264,"354":0.026525716389362977,"355":0.004467795651550437,"356":-0.07381019733694347,"357":-0.055321428665045226,"358":0.013340610041367622,"359":0.01497591519109452,"360":0.058316334344685826,"361":0.13462477027347156,"362":-0.05098179844892814,"363":-0.03862951701065772,"364":-0.037081229096499274,"365":0.036328261209667596,"366":0.022984099685582828,"367":0.08167351545229748,"368":0.11256807699842318,"369":0.02877333714694172,"370":0.025366395688972514,"371":0.0009464509620274899,"372":-0.08896885651090895,"373":0.04452047076303233,"374":0.15692381450220208,"375":0.018515272905430088,"376":0.009504796402063845,"377":0.00023709580113850178,"378":-0.08799734195818194,"379":0.08375136940187654,"380":0.022150545060258556,"381":-0.1088610231277413,"382":0.03086422345147735,"383":0.051203121847166945,"384":-0.10759071475551443,"385":-0.011281092211600634,"386":-0.03820108645976848,"387":0.002243161734730155,"388":-0.14874117679694535,"389":-0.036498490765625426,"390":-0.007562842951598134,"391":-0.06976509099149063,"392":-0.04883109169759191,"393":-0.02995459406437701,"394":-0.01491165517812991,"395":-0.16398618190960085,"396":-0.008797884123600825,"397":0.005229696759996185,"398":-0.02282405786499359,"399":0.03848328087417777,"400":-0.00585420494657444,"401":-0.0062725958564175816,"402":0.1294847748760826,"403":0.04152336985099092,"404":0.028852914318913396,"405":0.015194571342166483,"406":-0.10292660842451787,"407":-0.04456682563820233,"408":-0.04205930623209215,"409":0.13377731303339022,"410":0.0227424493987762,"411":0.01931152225268851,"412":0.013924826048754385,"413":-0.030104959506184307,"414":0.040134019844687396,"415":0.012217495639469575,"416":-0.011259650440221564,"417":-0.09348991823856724,"418":0.012775762615474551,"419":-0.020633292540200392}},{"sx":1,"sy":1,"depth":420,"w":{"0":-0.11714237482825933,"1":0.009606186057555536,"2":-0.010309521754220187,"3":0.04849367894872807,"4":0.002216867481528981,"5":-0.008963123509247953,"6":0.04617430323103235,"7":0.06461277880705928,"8":0.07535035524503793,"9":0.0433233354176723,"10":0.014473966580962077,"11":-0.012171065381334873,"12":-0.132863560610403,"13":-0.004047108441352728,"14":0.04606911754765994,"15":0.03555946168494603,"16":0.014329782415467167,"17":0.03225698920379404,"18":-0.009746225918135986,"19":-0.007852694806092487,"20":-0.050075289171728155,"21":-0.025675775465158118,"22":0.003228908553793417,"23":0.06617157091683726,"24":-0.060468384981012376,"25":0.014072695042985374,"26":-0.07902235938340488,"27":-0.04030147000816575,"28":0.024274694500483338,"29":0.10712071962351505,"30":0.010680007256172054,"31":-0.061431863223086795,"32":0.05530094124991893,"33":-0.008795569395804323,"34":0.010277599001259645,"35":0.05827606744519378,"36":-0.03724914421026029,"37":-0.06098840227536395,"38":0.02085238791854875,"39":0.0025097702711877924,"40":-0.01026545682893183,"41":0.052491041423207506,"42":0.05683302391458874,"43":-0.02853218245246585,"44":-0.0010453248302428491,"45":0.021789647100413777,"46":0.0516036019467756,"47":-0.04866556168566097,"48":0.006912120997583034,"49":-0.02349930903609775,"50":0.007845309349230523,"51":-0.012314172292162357,"52":0.07516173381928222,"53":-0.004032516110035479,"54":0.08196429111393533,"55":0.010677946703917418,"56":0.016641476899528,"57":0.03675771174989515,"58":0.033637708103115976,"59":-0.02787261140308575,"60":0.00934359202468364,"61":-0.02501161417129278,"62":-0.023087751464177454,"63":0.08920125597274654,"64":0.014898225377338283,"65":-0.04566280315287181,"66":0.024874354419288924,"67":-0.027548479158714907,"68":-0.007818357732699158,"69":0.04230139934174574,"70":-0.019079424574707654,"71":-0.03280057600434847,"72":0.033174738821226714,"73":-0.0012825377527957407,"74":-0.01782249514059332,"75":0.007723005319248058,"76":0.04491509871427883,"77":0.10586149972549155,"78":0.04687647653927929,"79":-0.03351933749313186,"80":0.07340281976572825,"81":-0.06463478599138747,"82":0.0885505524535522,"83":0.012922537684513541,"84":-0.005668527026175254,"85":0.004860592455197177,"86":0.035993795409427376,"87":0.03630835790729338,"88":-0.10133348634315864,"89":-0.0023200912787596645,"90":0.05546560279425989,"91":-0.04190001971247574,"92":-0.04071925597852131,"93":0.05305822098342011,"94":0.04757288507512613,"95":-0.08396713087542762,"96":-0.09265778818291968,"97":-0.010691038038501294,"98":-0.0038662552630868655,"99":-0.08029837186597595,"100":0.05362129717614079,"101":0.02987402072326883,"102":-0.06451694488961236,"103":0.0018612243600547999,"104":0.00860230607505483,"105":-0.0402581053500739,"106":-0.015142484388267428,"107":0.055296552254703535,"108":0.043302382334019854,"109":0.03489160845642775,"110":-0.03659794217641804,"111":0.013212650331060496,"112":-0.024735079154972858,"113":-0.031538299426796035,"114":0.0003526701262853598,"115":0.11471188100800787,"116":0.026569677636961046,"117":0.008952476483993561,"118":-0.03590769899213908,"119":0.006515349365608325,"120":0.06619318241260583,"121":0.025095868899164157,"122":0.07134102045763682,"123":0.005491880012111014,"124":0.03014155154585074,"125":-0.022372399382293014,"126":0.08086782393418708,"127":-0.04553373162911833,"128":-0.0008879576713309719,"129":0.08849595010853409,"130":0.020626159423217716,"131":-0.010359716453469973,"132":-0.004116468256934025,"133":-0.000137850201982037,"134":0.023156066288579844,"135":0.08919829925327259,"136":0.10070637256717628,"137":-0.006978275837969815,"138":-0.022651105405511872,"139":-0.0687879348292418,"140":0.02563138603457833,"141":0.014322962458953516,"142":0.007518837348089848,"143":0.062087289811717815,"144":-0.04135010449991918,"145":-0.0017018293623511157,"146":0.03789488325315073,"147":-0.0387492407293326,"148":-0.061868740281436824,"149":0.03727999913824621,"150":0.009417781255028955,"151":-0.006084875753287155,"152":-0.012762069093913237,"153":-0.05740007337465085,"154":0.030524486460384633,"155":0.04641814427391299,"156":0.0756881594166844,"157":0.12816900479413704,"158":-0.0288853090314072,"159":-0.012754933551318392,"160":0.07371724253296835,"161":-0.004960580041304609,"162":-0.05852633268709053,"163":0.018186371449765277,"164":0.03750209801466574,"165":0.0017887560470435308,"166":0.00811682909498361,"167":0.06742494019603602,"168":0.024022337951153487,"169":0.031098920093103676,"170":0.07448912026566717,"171":0.11985967033906013,"172":-0.03128323853625083,"173":0.01334866407231894,"174":0.0030897052486992633,"175":-0.046051799061264186,"176":0.04601447876058839,"177":0.08208759141934668,"178":0.1440532678981718,"179":-0.05344493029948695,"180":-0.05265199258165075,"181":-0.05906455849330419,"182":0.04588597920089217,"183":0.0127550367045191,"184":0.044380496862483715,"185":-0.014222346003644406,"186":-0.010769718593723481,"187":0.07689422653332022,"188":-0.04816785544361578,"189":0.04233279790737483,"190":0.06760650396314509,"191":0.12010080261551052,"192":0.05572120677766792,"193":-0.07085555860445308,"194":0.059619407831188215,"195":0.059689289254955105,"196":0.01357270572698973,"197":-0.04562768245378177,"198":0.08397895584477022,"199":0.030606087578421065,"200":0.04935328747567343,"201":0.020873325793279093,"202":-0.04522599207326968,"203":0.06109363518945521,"204":0.08835242858590983,"205":0.005263610426337388,"206":0.0830422779353099,"207":0.08393780145689378,"208":-0.06649444658034798,"209":0.09023650230027519,"210":0.031571535018723,"211":-0.018447053967785048,"212":0.027340793073148746,"213":0.05830492981885578,"214":-0.01809098791168432,"215":0.04605618211918711,"216":0.009684503399872035,"217":-0.026403566340832837,"218":-0.002840666892443215,"219":0.020738199474912605,"220":0.1264917087789436,"221":0.04024423871945331,"222":-0.06567878051662984,"223":-0.016694153063832633,"224":-0.042869223210891746,"225":-0.005582230942360468,"226":0.17134332213368159,"227":0.1338139241215104,"228":-0.015056908859754735,"229":0.045685529653237335,"230":0.09897312757301333,"231":0.011238136650307104,"232":-0.11475510770778326,"233":0.061133039535070544,"234":0.07330984028587556,"235":-0.07352257550695743,"236":-0.043585517603489186,"237":-0.03145112941788544,"238":0.07306942005539574,"239":0.005887090882765115,"240":-0.0024286048515051793,"241":0.08112617567617782,"242":0.06534702878018157,"243":-0.04481413042562618,"244":0.026693665864922014,"245":0.061590305971933906,"246":-0.03862134510353283,"247":0.0775471703951088,"248":0.158776008749848,"249":-0.12023086423431849,"250":0.015007583527506651,"251":0.03147343456128648,"252":-0.04940135461882744,"253":-0.009493581523373226,"254":0.1643200731796667,"255":0.049261823859506955,"256":0.03254232639901188,"257":0.0274177991805216,"258":0.029369059825701684,"259":-0.0037920676227832222,"260":-0.014309384145890473,"261":0.08327141714088238,"262":0.11160084173171318,"263":0.045422295616293525,"264":0.064635622348125,"265":0.0646624928982193,"266":-0.05613446518803599,"267":-0.00003777355743616535,"268":0.03448988835396293,"269":0.14090290533334177,"270":0.07973104256209475,"271":0.04240058412396829,"272":0.0466586972912501,"273":0.0337333483564629,"274":0.060179583563832566,"275":0.09196170123813893,"276":0.3398925934604561,"277":0.06668004045562237,"278":-0.06728715690089589,"279":-0.03532323795753929,"280":0.0183392147825453,"281":0.07305980869164411,"282":0.17978219186301372,"283":0.40977087176045945,"284":-0.03750046771137237,"285":0.05732693850711933,"286":-0.0184680286744649,"287":-0.010358785577777828,"288":0.025060085319634794,"289":0.14785220118506623,"290":0.3738591295845891,"291":-0.014272207404152124,"292":-0.06955769935212364,"293":0.06312760985796168,"294":-0.030692101779047205,"295":0.04128177205844876,"296":0.1790875135030655,"297":0.38156279750081024,"298":0.03878770507607779,"299":0.03458883006297679,"300":-0.02409532482926871,"301":0.02477750124082806,"302":0.006030039790243788,"303":-0.03126285669912508,"304":0.44386282464268334,"305":-0.05805620204868091,"306":0.010657551091258481,"307":-0.04903550282837209,"308":0.009218923994662407,"309":0.007244105886794888,"310":0.032552330630421705,"311":0.30571766253535737,"312":-0.025476268805410734,"313":-0.009188971720320793,"314":0.04267393944014724,"315":-0.03190754175666109,"316":-0.08882390436239952,"317":-0.004238053322432438,"318":0.4151530173299549,"319":-0.10579451123120694,"320":0.021987373299751315,"321":-0.03782969940726251,"322":-0.00973216306187404,"323":-0.08984976881904287,"324":-0.02106288568104652,"325":0.42928612945495587,"326":-0.12652807572533514,"327":0.01261021617475094,"328":0.01695596396137148,"329":-0.06223889956049861,"330":-0.005255114997948725,"331":-0.070035022193463,"332":0.16991651928273294,"333":-0.06730441847800528,"334":-0.043473946931602545,"335":0.01300870157045403,"336":0.018603806129008617,"337":0.05349411277231176,"338":-0.04620996065512412,"339":0.10798693424025907,"340":-0.19867307625038874,"341":0.00607774536759187,"342":-0.050329689336728864,"343":0.01774550292365699,"344":-0.0176657839287713,"345":0.017144009272431298,"346":0.10745395602515088,"347":-0.18904864962046222,"348":0.09146298737791478,"349":0.043382347263378564,"350":-0.031769354227747036,"351":-0.03932936966939086,"352":-0.09866462308398871,"353":0.13165643372292454,"354":-0.1588919626546269,"355":-0.13266988478581943,"356":-0.056414087560313,"357":-0.05056806966752988,"358":0.022311690233467667,"359":-0.016770507493914982,"360":0.1225366337780469,"361":-0.054317580718116744,"362":-0.006901374798206322,"363":0.01662829228403107,"364":-0.03881052466331622,"365":0.03519510311074716,"366":-0.07378015088350731,"367":0.07382891796328053,"368":-0.04008577043615271,"369":-0.014940094924857473,"370":-0.05381877208367702,"371":-0.04020563834886487,"372":-0.017673077139811443,"373":0.012249255763280202,"374":0.1106077307322366,"375":-0.09310181756221904,"376":-0.00416271938378109,"377":0.04618652348637914,"378":-0.013197530442048596,"379":0.0010913768514118163,"380":-0.12893240700994,"381":-0.02945818527767886,"382":-0.08878500191891135,"383":-0.00222685181316636,"384":-0.007904077455105215,"385":0.06924197883188545,"386":0.0023357051864976606,"387":-0.0886091914059526,"388":-0.05366193053066516,"389":0.03383851186316749,"390":-0.022533649504897748,"391":-0.050491999580662576,"392":0.03924350133404719,"393":0.03386448115508239,"394":0.049327424116834065,"395":-0.07575356555572764,"396":0.007987296929628815,"397":-0.012145094161110622,"398":0.07633226361980554,"399":0.08694332566977397,"400":-0.0005516556158562349,"401":-0.010186192160626197,"402":0.03749915758464194,"403":0.0020576090460525717,"404":-0.024946209972864643,"405":0.0034997864574947955,"406":0.0023872729700553782,"407":-0.043851584294167,"408":-0.0009001319673652539,"409":0.16796875823933663,"410":-0.04335358087422182,"411":-0.02360511873003843,"412":0.06248780258548175,"413":-0.01637904490560404,"414":0.014731335662352085,"415":-0.030171989953141305,"416":0.06477113773084402,"417":-0.0667339337448174,"418":0.051164199176204114,"419":-0.04159063242143491}},{"sx":1,"sy":1,"depth":420,"w":{"0":-0.022856994837505987,"1":-0.010532507793187963,"2":-0.0055376156912876565,"3":0.09795282107517378,"4":-0.07823302834057325,"5":-0.14130844044026078,"6":-0.0071470432091144615,"7":0.011686714991342004,"8":-0.01259294874791587,"9":0.04692828899355455,"10":-0.06921674105876298,"11":-0.033566990822409624,"12":-0.012406961273985846,"13":0.02218473146136672,"14":0.07170656502639562,"15":0.0349474562473289,"16":-0.07198653010802904,"17":-0.007834605336355221,"18":0.004911611254722059,"19":-0.11144248755065245,"20":0.04037092018859281,"21":0.03593746460616119,"22":0.013731835510488948,"23":0.03486405952248333,"24":-0.021054437150097912,"25":-0.07460774539217155,"26":0.054748867459161604,"27":0.01337899387026245,"28":0.11183966031032203,"29":-0.013421439890118006,"30":-0.08480322221977202,"31":-0.07132235973444954,"32":0.021133256588540157,"33":0.15415823256822772,"34":-0.05413333526358408,"35":-0.08925779694619194,"36":-0.0817170107746893,"37":0.07233243355897435,"38":0.0689953964372506,"39":0.029532799838810974,"40":0.057194907940526875,"41":0.07537096378301496,"42":0.01618865346742991,"43":0.023346786400177125,"44":-0.044768139742057525,"45":-0.03761461152538749,"46":0.008444232090215545,"47":0.079311599695513,"48":0.05324539651833678,"49":0.061252415674661415,"50":0.0008642442850805406,"51":-0.06161046176118802,"52":0.03404177599156796,"53":0.00404724570212415,"54":0.02145980478518644,"55":-0.08606104634646175,"56":-0.014747913652349938,"57":-0.030393033922788387,"58":0.10848712459145114,"59":-0.017780795631234136,"60":0.042237103458450276,"61":-0.011494667052052687,"62":-0.006786127127334793,"63":0.0027311708325129342,"64":0.05260139187325959,"65":-0.07718860991363888,"66":-0.002141733255330208,"67":0.040299921642582295,"68":-0.06508808552218197,"69":-0.005293242538157544,"70":-0.0029305677322786273,"71":-0.028028315178209688,"72":0.019528999979110534,"73":0.056188901583374876,"74":0.046014619857207825,"75":0.024032742374015998,"76":-0.030609396082983298,"77":-0.0012668410820216953,"78":-0.15651001179216703,"79":-0.0008069510707784267,"80":-0.02527244649882639,"81":0.012523529856845987,"82":-0.03356014328043481,"83":-0.021858619967256295,"84":-0.022537731139415464,"85":-0.011404056564773052,"86":0.03145742710701141,"87":0.014876670990834392,"88":0.045327355552570024,"89":-0.08475445349676788,"90":0.06359857271865797,"91":0.004535250038109803,"92":0.037229050098680334,"93":-0.056633579192336005,"94":0.040060039690073365,"95":-0.11313141991475513,"96":0.011117642531342273,"97":-0.009457316525553441,"98":-0.0028759875674807794,"99":0.00015179492647729936,"100":-0.011538348248769826,"101":0.03092725178374719,"102":0.07465811680632707,"103":-0.05343386221592246,"104":-0.014162482541622721,"105":0.09491981219804187,"106":-0.012900305836610119,"107":-0.038045692157313946,"108":-0.0442886357685871,"109":-0.05609357045012335,"110":-0.02724021912668131,"111":0.08244997315014137,"112":0.042468269839425955,"113":0.010330346209680305,"114":0.015182871059367388,"115":-0.02275452345860216,"116":0.10236940253841174,"117":0.06411667853997664,"118":0.03063645415314841,"119":0.0048518948278543144,"120":-0.0055506830626861825,"121":-0.09474925909699206,"122":0.021298311746019195,"123":0.019312945613844557,"124":-0.01979875507523057,"125":0.0965394945964856,"126":-0.05364735026243534,"127":0.07910311165097736,"128":-0.04480334343919668,"129":0.034895346910705664,"130":0.035624812105481254,"131":0.09973799085206439,"132":-0.028240552243122063,"133":0.010223312824751347,"134":-0.025398472273112992,"135":0.024773881838540495,"136":-0.048552662840709686,"137":-0.036183452822015016,"138":-0.0037339026205737134,"139":-0.017721211179174783,"140":0.06363819438517439,"141":-0.00606693373951876,"142":0.0053419856181932245,"143":0.052584419392780295,"144":-0.048301668339018895,"145":-0.016119233033973404,"146":-0.0001826845190692124,"147":0.07632485591252501,"148":-0.035982979689156105,"149":-0.005103502269971637,"150":0.06847621298838374,"151":-0.011291978233011547,"152":0.037532644538957285,"153":0.06477099602518281,"154":0.01394090714506149,"155":-0.027035556051305018,"156":-0.0061146225378327515,"157":0.05736645781665527,"158":-0.06753558106188656,"159":0.015303243635413665,"160":0.006481137286346644,"161":-0.04025656072013406,"162":-0.05620857228878021,"163":-0.04297055712109816,"164":-0.08894278901050727,"165":-0.015634783430746365,"166":-0.02986847187504263,"167":0.04843107012106913,"168":0.07980664062372204,"169":0.07772749495863186,"170":0.030592392182683573,"171":-0.012489027470092793,"172":0.020145361745670776,"173":-0.0034670096050921735,"174":-0.039630726128875006,"175":-0.10583825738088311,"176":-0.0023803104326586035,"177":-0.01463147088571051,"178":-0.06997337952010178,"179":-0.018636435333855592,"180":-0.0037362453359056913,"181":-0.008440953661407699,"182":0.06518564226459449,"183":-0.021050694600010567,"184":-0.05136942255701034,"185":-0.08488463314799992,"186":-0.024280991537271323,"187":0.07380462223841014,"188":-0.0537533427729213,"189":-0.005644613880906674,"190":0.07982401640975949,"191":0.02748559982464949,"192":0.014143760799534305,"193":-0.029680165557074343,"194":-0.005824280240751176,"195":0.005787648203505486,"196":0.0001396637094121821,"197":-0.006121490619644657,"198":-0.03668240239008314,"199":-0.001344638948469422,"200":-0.042102416724237264,"201":-0.042294168773451414,"202":0.0658392214752778,"203":0.008001327783199978,"204":-0.021698569241355267,"205":0.06894520728408976,"206":-0.014114203802326378,"207":-0.0470981325573969,"208":-0.029551754369833077,"209":0.06704416977749858,"210":0.02561622701181763,"211":0.099607168646896,"212":-0.009935446293115362,"213":0.07983494669960509,"214":0.018292904293593405,"215":0.08093122174955059,"216":0.04021289164460792,"217":-0.05710317574140035,"218":-0.034711739079371945,"219":-0.05941692849382642,"220":-0.068616403269398,"221":-0.06656654973657376,"222":-0.028926029682894656,"223":0.015135152541734446,"224":0.008949371980630652,"225":0.03952990104436228,"226":0.05947461590263223,"227":0.01722307347125699,"228":-0.041607674533939994,"229":0.012666660499784484,"230":-0.06854871360155596,"231":-0.016946478681500027,"232":0.019670878422748065,"233":0.06639580520032005,"234":-0.03808868378700746,"235":-0.039190790491286945,"236":0.02762420943371714,"237":-0.01939140662690938,"238":0.0800804098439474,"239":-0.05662601114627292,"240":0.0005741875871423699,"241":-0.0632790459784536,"242":0.013049576368231454,"243":-0.016812285719680853,"244":0.02429574478402386,"245":-0.025657979539169647,"246":-0.019364287318772898,"247":-0.06646922520303926,"248":0.046277681190335214,"249":0.04814756758849511,"250":0.0705595810884978,"251":0.08330167925006979,"252":0.009119462773936528,"253":0.023652553954162377,"254":-0.059234556748320726,"255":-0.03413286657302683,"256":0.011406512220455143,"257":-0.029407072730101406,"258":0.031586742365735034,"259":-0.014355743893332459,"260":0.058340997068514706,"261":0.07247796758033638,"262":-0.05360393284012834,"263":0.04388314766909567,"264":-0.06901959891490547,"265":0.021881194328436025,"266":0.05724128875754799,"267":-0.02946622756104055,"268":-0.034164997119774144,"269":0.04677430536614415,"270":-0.010297348587110233,"271":-0.07145970950080799,"272":-0.02143631937618083,"273":-0.03483079406523946,"274":0.009089967784467863,"275":-0.022702119412934298,"276":0.026672720587324592,"277":-0.030874602106297184,"278":-0.05823173819540565,"279":-0.05956353633764273,"280":0.01388067315867517,"281":0.01121273262574045,"282":0.06610912410976848,"283":-0.06694267826738007,"284":-0.031478103109239014,"285":0.009128629993496213,"286":0.08639472370466865,"287":-0.06401943429804548,"288":-0.004780277486055143,"289":0.05373857356595483,"290":-0.027364413042158035,"291":-0.012141002095619786,"292":-0.0006716635687819521,"293":-0.09390307240695585,"294":-0.036955931561105715,"295":-0.06843754186028982,"296":0.020596365678737412,"297":0.04413307106809755,"298":0.030893997399556124,"299":-0.07912395479048837,"300":-0.031405325520587085,"301":-0.004408324807019664,"302":-0.0692857709185028,"303":-0.0013336561396021312,"304":-0.04040872308868584,"305":0.06238523058665408,"306":0.06240768283217355,"307":-0.016936062555122106,"308":-0.020732781512222225,"309":0.026390185700325943,"310":0.012396951416744425,"311":-0.07385564103899298,"312":-0.033873602292966556,"313":-0.043950930689911696,"314":-0.03249386154269087,"315":0.012130514888974927,"316":0.02142119772213438,"317":0.0020593585787223793,"318":0.04459546062617369,"319":0.012273667198313883,"320":0.03227499712732497,"321":-0.010460072469179781,"322":-0.035717896904309016,"323":0.029415642193718866,"324":0.03713909519616881,"325":-0.0035031471533933925,"326":-0.08269183889569554,"327":0.04983900102191212,"328":0.08930473779109699,"329":-0.056698754389951735,"330":-0.03795845312195958,"331":-0.0626445680576485,"332":-0.0035602414205356723,"333":0.033628389121964766,"334":0.02031776989914524,"335":0.014000899337113725,"336":-0.03613812583914202,"337":-0.00014907603890416227,"338":0.067954620974714,"339":-0.02485880853986683,"340":-0.01405516256673968,"341":0.02194018139853988,"342":0.02783453361650431,"343":0.011328941256217967,"344":-0.006149408453050906,"345":0.012617192395849632,"346":0.06748390882372855,"347":-0.10493704589186553,"348":-0.021056039977651715,"349":0.0135325765089358,"350":0.015565412997886016,"351":-0.07159991442871574,"352":0.011341372162872178,"353":0.01716145081530406,"354":-0.013309608181241508,"355":0.01298545610520804,"356":-0.013203389706769882,"357":0.07933393792844562,"358":-0.03205942785500624,"359":0.0027594305865261425,"360":-0.008872252739487777,"361":-0.07513510816203588,"362":0.032358471839640385,"363":0.034618530078961915,"364":-0.021832701094450523,"365":-0.08270285508837386,"366":-0.05722854233254902,"367":0.008082426155602122,"368":0.08430208198318771,"369":0.07321878101748604,"370":-0.00982393934144323,"371":0.06719988296499856,"372":0.059704461022151246,"373":-0.08660746994975448,"374":0.005435628641625951,"375":-0.08712450449291308,"376":0.0023065890123538375,"377":-0.043497627284403116,"378":0.012462547303170694,"379":0.030753287761065846,"380":-0.060673822768458216,"381":-0.007239885292935057,"382":-0.056803967299267066,"383":0.0206571895916848,"384":-0.08483909036697883,"385":0.007381925779216999,"386":0.05504673655512514,"387":0.004785679342331487,"388":0.048578207373070705,"389":-0.028061187097679966,"390":-0.019134299980021027,"391":0.031130832877342286,"392":-0.002842049059471462,"393":-0.02131636140592179,"394":-0.044055958028687475,"395":-0.044132416293765284,"396":-0.08844728214822893,"397":0.044038142087409055,"398":-0.012553348332865581,"399":-0.04800771032474251,"400":-0.02478119636692731,"401":0.011074871886290453,"402":-0.06595682396163276,"403":-0.08687066945541178,"404":-0.018092249725184598,"405":-0.006871976854205336,"406":-0.04698182966456625,"407":-0.04640804595190888,"408":-0.030554802569813175,"409":-0.023265175441232827,"410":0.02745074710865065,"411":-0.037191846772595086,"412":-0.0024672868303382057,"413":-0.09877495542909595,"414":0.02429882781359907,"415":0.07429246828371568,"416":0.012718859118213072,"417":0.08054444193756043,"418":0.0036367513600540947,"419":0.04521767763515005}},{"sx":1,"sy":1,"depth":420,"w":{"0":0.0390071617257715,"1":-0.015739295281578174,"2":0.032890113306595366,"3":0.05242001604458626,"4":0.035711287873817665,"5":0.05487131670214488,"6":0.004389373966655997,"7":0.12044105222001675,"8":-0.009467048543826767,"9":0.048661450910387136,"10":0.05454314501515002,"11":0.03294485301512198,"12":-0.024511311875928567,"13":0.0590702815373447,"14":0.08460128491826517,"15":-0.02789871892576628,"16":-0.05605128923200022,"17":0.10420692866754602,"18":0.026907450111083947,"19":-0.04229400219141012,"20":0.010589292844053383,"21":-0.013510098620034388,"22":0.007074188593013326,"23":0.04576574020625568,"24":0.006184424278746762,"25":0.15902799054408326,"26":0.025172118582115197,"27":-0.014331117120131808,"28":0.04027427781173475,"29":-0.04071791689842379,"30":0.08249009513360435,"31":0.01989044417614772,"32":-0.01773752346680939,"33":0.021182959902983144,"34":-0.010509783484188562,"35":-0.045147339151593815,"36":0.023529416704582497,"37":0.04290862716598433,"38":-0.013887990036521027,"39":0.007822213673133096,"40":0.03388620134624355,"41":0.04351148820454709,"42":0.06519310653584577,"43":-0.01867922692701863,"44":0.009056404105118616,"45":-0.029309418234443413,"46":-0.02729496874560811,"47":-0.03868737789178599,"48":0.010273616934875001,"49":0.016802335603120326,"50":-0.010048624263934734,"51":-0.0031725968866927437,"52":0.010543488361584695,"53":0.05796622057146294,"54":-0.04102385769047979,"55":-0.020462565170648893,"56":0.00476172006214665,"57":0.0035243793373617746,"58":-0.017117153038699272,"59":0.023153836250255647,"60":0.05792081179606387,"61":-0.0023688673910537412,"62":-0.04063274457820926,"63":0.002912325274962881,"64":0.0064753206695862,"65":-0.15203357543077978,"66":0.007073130377660053,"67":-0.0030009280786236717,"68":-0.03467905863992814,"69":-0.05129025164170403,"70":0.022292132621762422,"71":0.032139816072283195,"72":0.06488169884523702,"73":0.03459198973385151,"74":-0.012948604602868471,"75":-0.017267233058479874,"76":-0.1484869070051721,"77":0.0025124606931615718,"78":0.0026144761482834915,"79":0.004598810778518891,"80":-0.08215487909890042,"81":0.04853963546545971,"82":-0.03362140259040663,"83":-0.038413315602083234,"84":-0.019067366628540108,"85":-0.019953455762335134,"86":-0.010645306603770405,"87":0.020720319419457893,"88":-0.01759399107173444,"89":0.04988300378974132,"90":0.005439303335080367,"91":-0.03749617949403272,"92":-0.026396230318941283,"93":0.0381094309610051,"94":-0.026557748026082788,"95":0.12156518156913977,"96":0.0025772176955795047,"97":-0.054733348603114226,"98":-0.004196018180890491,"99":0.04215427351442788,"100":0.10180487816549606,"101":0.055245140084524254,"102":-0.009196159267939239,"103":0.037969486056969544,"104":0.006079943603552231,"105":0.15319685422673246,"106":-0.014043642971686674,"107":-0.02762976759560946,"108":-0.05198688797159718,"109":0.07243501865103757,"110":0.008705823503475252,"111":-0.015722546993637503,"112":-0.07648953657371489,"113":-0.01802699085570972,"114":0.03945743881957718,"115":-0.05030210331949586,"116":0.016332840364605437,"117":0.07389642920947759,"118":-0.045716492514043874,"119":0.003846276744305655,"120":0.012295616642571176,"121":0.024560455019039782,"122":-0.008613448299185806,"123":0.016173175003933945,"124":0.037186044083996665,"125":-0.08372296466027755,"126":-0.14489269237736907,"127":-0.022510201669487518,"128":0.012479420432175519,"129":-0.04993876688418496,"130":-0.023064725590621886,"131":0.06852545131680367,"132":-0.004320196904591702,"133":0.0038437980724218323,"134":-0.027301483972186468,"135":0.0037189506791529357,"136":0.06454544605459284,"137":-0.023845373374864507,"138":-0.06708180720560908,"139":-0.036875432777605376,"140":-0.010823192211308355,"141":-0.0007260138466815824,"142":0.06604179089229166,"143":0.053398444922309135,"144":-0.06872680506263186,"145":0.026283201870154767,"146":-0.10766150112579871,"147":0.06051534433654843,"148":0.05916161700913314,"149":0.033013697948360066,"150":0.07332979198753073,"151":0.10001675397820188,"152":0.024150713604582298,"153":-0.05899107824081974,"154":0.05488118520943238,"155":0.05762156318082391,"156":0.07753442883904405,"157":-0.0020834709008785398,"158":0.05975015128667019,"159":0.023868056291440926,"160":-0.04255081710257812,"161":0.0702956179886516,"162":0.0818393862318479,"163":0.06887126141480385,"164":0.11457823581279963,"165":0.049786000922892024,"166":-0.04645320688648574,"167":0.011371942006003583,"168":0.007922092315688103,"169":0.016878261746831966,"170":0.059791502417549464,"171":0.008405046283893323,"172":0.14250067939417338,"173":-0.024656457230345923,"174":-0.06757955024430794,"175":-0.058511016285598634,"176":-0.01846034632794985,"177":0.02712806376341786,"178":0.003622036522556214,"179":0.12204070244547648,"180":-0.05351634863507351,"181":-0.0031625291256971917,"182":-0.036520437621751056,"183":-0.003376297797472773,"184":0.03393145887543878,"185":0.03610645365498488,"186":0.020430076619629083,"187":0.08129098544492111,"188":-0.0035115496742214223,"189":-0.09007269605609891,"190":0.06024922933934766,"191":0.056563204976902495,"192":-0.030274200745679197,"193":-0.01895934630431384,"194":-0.11529637847387651,"195":0.0017392011644962188,"196":-0.008521303209547798,"197":-0.005263738774485417,"198":0.06518273130746899,"199":0.0997488784367968,"200":-0.04159132639871532,"201":0.014605625875812942,"202":0.03521241055938716,"203":-0.05480353835144185,"204":0.10466876068731575,"205":0.112804167043339,"206":-0.054803047284582414,"207":-0.04040777478591542,"208":0.010150867241180384,"209":-0.016960832068246424,"210":-0.05327895322588276,"211":0.0037803725817432713,"212":0.024213170838482463,"213":0.03645072723095792,"214":0.03826106095647471,"215":0.016514120776500225,"216":0.0032080214908094184,"217":0.08992971401655236,"218":0.005521781325335474,"219":-0.06372419702451759,"220":0.06875897591673395,"221":-0.06965750951809639,"222":0.033164306241309324,"223":-0.014862749368235832,"224":-0.07955432682734674,"225":0.05492238238326586,"226":0.10799561098266168,"227":0.029116328175914717,"228":-0.006506257706487352,"229":-0.0012432436753921446,"230":0.001881271142868371,"231":-0.04642882277015174,"232":0.06707450167647859,"233":0.08420325085597294,"234":-0.008334390229646917,"235":0.013058368635602422,"236":0.08267413558491771,"237":-0.10113770370709824,"238":-0.005009020206435079,"239":-0.0019496890081798638,"240":-0.0031247772626714315,"241":0.03190620452189398,"242":-0.013546760155859764,"243":0.04681690795261883,"244":-0.04855189981698545,"245":0.15175433454068737,"246":0.05692224343380026,"247":0.05299250692324421,"248":0.05761102150999094,"249":0.0387745617406838,"250":-0.056727898612803,"251":0.005435497545742335,"252":0.015997547276676516,"253":0.03878719304304361,"254":0.05812492613918497,"255":0.04692602204826207,"256":0.06890811159862532,"257":-0.05544988129123851,"258":0.0024550357889185745,"259":-0.018025337439855318,"260":0.0025203966209208983,"261":0.004039414506031831,"262":0.025458676203882726,"263":-0.03299591367240356,"264":0.027556860023342677,"265":-0.056816135764162674,"266":0.12157802155290753,"267":-0.028443994106761513,"268":0.152754231932187,"269":0.15765416531224574,"270":0.07065028605894878,"271":-0.11538994466537689,"272":-0.007196701614305021,"273":0.06872235531294177,"274":0.011927649442353559,"275":0.0678558598723386,"276":0.06230021780386195,"277":-0.08730782794773337,"278":-0.004347539408012748,"279":-0.0037421833165529883,"280":0.06843467921349698,"281":-0.06417394262052376,"282":0.07025552639567195,"283":0.16391321967806038,"284":-0.08916417959092483,"285":0.08802475219958583,"286":0.031002083923739668,"287":-0.17749991022957776,"288":0.07956264407104484,"289":0.1765643524443459,"290":0.07259359250553661,"291":0.0490541435332958,"292":0.038851198140129516,"293":0.01837051520078779,"294":0.07892117739781063,"295":-0.04682866751474812,"296":0.1658478865614311,"297":0.21618155392174582,"298":0.02427444659924485,"299":-0.014822262394086592,"300":0.11746061545761625,"301":0.015666982155781786,"302":0.018948590917631007,"303":0.12270262584902818,"304":0.3462752825882355,"305":-0.029909573314784662,"306":0.02186505616542669,"307":-0.03923169685282864,"308":0.03504386634223206,"309":0.0721470528413851,"310":0.21103775943737527,"311":0.37201737631315984,"312":0.10170399263445128,"313":0.026398010212586875,"314":0.059687057796049665,"315":-0.03724747051993145,"316":0.003939690123219565,"317":0.2049754626215848,"318":0.3448124019971988,"319":0.061818582039444195,"320":-0.04021461196012903,"321":0.05116185561044872,